{"learner":{"attributes":{"best_iteration":"59","best_score":"0.8400264532460877","scikit_learn":"{\"_estimator_type\": \"classifier\"}"},"feature_names":["gender","SeniorCitizen","Partner","Dependents","tenure","PhoneService","MultipleLines","OnlineSecurity","OnlineBackup","DeviceProtection","TechSupport","StreamingTV","StreamingMovies","PaperlessBilling","MonthlyCharges","TotalCharges","InternetService_Fiber optic","InternetService_No","Contract_One year","Contract_Two year","PaymentMethod_Credit card (automatic)","PaymentMethod_Electronic check","PaymentMethod_Mailed check"],"feature_types":["int","int","int","int","int","int","int","int","int","int","int","int","int","int","float","float","int","int","int","int","int","int","int"],"gradient_booster":{"model":{"cats":{"enc":[],"feature_segments":[],"sorted_idx":[]},"gbtree_model_param":{"num_parallel_tree":"1","num_trees":"80"},"iteration_indptr":[0,1,2,3,4,5,6,7,8,9,10,11,12,13,14,15,16,17,18,19,20,21,22,23,24,25,26,27,28,29,30,31,32,33,34,35,36,37,38,39,40,41,42,43,44,45,46,47,48,49,50,51,52,53,54,55,56,57,58,59,60,61,62,63,64,65,66,67,68,69,70,71,72,73,74,75,76,77,78,79,80],"tree_info":[0,0,0,0,0,0,0,0,0,0,0,0,0,0,0,0,0,0,0,0,0,0,0,0,0,0,0,0,0,0,0,0,0,0,0,0,0,0,0,0,0,0,0,0,0,0,0,0,0,0,0,0,0,0,0,0,0,0,0,0,0,0,0,0,0,0,0,0,0,0,0,0,0,0,0,0,0,0,0,0],"trees":[{"base_weights":[9.115757E-3,3.63677E-1,-1.6339478E0,7.2720426E-1,-1.0161215E0,-1.8172674E0,-1.1714242E0,1.5725324E-1,1.090139E0,-1.4018644E0,-4.343115E-1,-1.8474146E0,-1.2816861E0,-9.0099967E-1,-1.7226417E0,3.763726E-2,-2.0494169E-2,6.90301E-2,2.902226E-2,-5.8282852E-2,-8.952005E-2,-3.3367407E-2,-1.8069266E-3,-9.405084E-2,-6.7489296E-2,-7.9630956E-2,3.6150122E-3,-8.461539E-2,-3.946714E-2,-5.5107743E-2,-9.493671E-2],"categories":[],"categories_nodes":[],"categories_segments":[],"categories_sizes":[],"default_left":[0,0,0,0,0,0,0,0,0,0,0,0,0,0,0,0,0,0,0,0,0,0,0,0,0,0,0,0,0,0,0],"id":0,"left_children":[1,3,5,7,9,11,13,15,17,19,21,23,25,27,29,-1,-1,-1,-1,-1,-1,-1,-1,-1,-1,-1,-1,-1,-1,-1,-1],"loss_changes":[9.5920776E2,6.8002606E2,2.2650452E1,2.2166864E2,6.2862762E1,9.821167E-1,1.1232384E1,1.4161183E2,9.617621E1,1.3479248E1,1.0572435E1,7.0770264E-1,6.144655E0,3.9332085E0,8.717499E-1,0E0,0E0,0E0,0E0,0E0,0E0,0E0,0E0,0E0,0E0,0E0,0E0,0E0,0E0,0E0,0E0],"parents":[2147483647,0,0,1,1,2,2,3,3,4,4,5,5,6,6,7,7,8,8,9,9,10,10,11,11,12,12,13,13,14,14],"right_children":[2,4,6,8,10,12,14,16,18,20,22,24,26,28,30,-1,-1,-1,-1,-1,-1,-1,-1,-1,-1,-1,-1,-1,-1,-1,-1],"split_conditions":[1E0,1E0,1E0,1E0,1E0,1E0,7.2E1,6E0,2.2E1,1E0,1E0,1E0,1E0,4.52405E3,1E0,3.763726E-2,-2.0494169E-2,6.90301E-2,2.902226E-2,-5.8282852E-2,-8.952005E-2,-3.3367407E-2,-1.8069266E-3,-9.405084E-2,-6.7489296E-2,-7.9630956E-2,3.6150122E-3,-8.461539E-2,-3.946714E-2,-5.5107743E-2,-9.493671E-2],"split_indices":[19,18,16,16,16,1,4,4,4,17,21,21,3,15,7,0,0,0,0,0,0,0,0,0,0,0,0,0,0,0,0],"split_type":[0,0,0,0,0,0,0,0,0,0,0,0,0,0,0,0,0,0,0,0,0,0,0,0,0,0,0,0,0,0,0],"sum_hessian":[1.6445E3,1.3532559E3,2.9124414E2,1.0714423E3,2.8181354E2,2.0647826E2,8.4765884E1,4.1739716E2,6.5404517E2,1.6861287E2,1.1320067E2,1.9315636E2,1.3321906E1,5.8634617E1,2.6131271E1,2.0344899E2,2.1394817E2,4.1553345E2,2.385117E2,1.07350334E2,6.1262543E1,7.0981606E1,4.2219063E1,1.7833444E2,1.4821906E1,1.0690636E1,2.631271E0,5.5E0,5.3134617E1,7.381271E0,1.875E1],"tree_param":{"num_deleted":"0","num_feature":"23","num_nodes":"31","size_leaf_vector":"1"}},{"base_weights":[-5.320291E-3,3.256252E-1,-1.5861067E0,-3.0158046E-1,7.9782283E-1,-1.7670486E0,-1.1305149E0,4.7397405E-1,-7.710604E-1,1.3368558E0,2.2505493E-1,-9.0601295E-2,-1.1813929E0,-9.769365E-1,-8.975949E-2,5.418201E-2,-2.1197332E-2,-2.7852673E-2,-7.531205E-2,8.444688E-2,6.122114E-2,-7.979737E-3,2.8514544E-2,-4.8927376E-3,-7.819932E-2,-7.448944E-2,-4.027461E-2],"categories":[],"categories_nodes":[],"categories_segments":[],"categories_sizes":[],"default_left":[0,0,0,0,0,0,0,0,0,0,0,0,0,0,0,0,0,0,0,0,0,0,0,0,0,0,0],"id":1,"left_children":[1,3,5,7,9,11,13,15,17,19,21,-1,23,25,-1,-1,-1,-1,-1,-1,-1,-1,-1,-1,-1,-1,-1],"loss_changes":[8.582453E2,4.0199994E2,2.1413574E1,2.1277255E2,2.3871848E2,3.16687E0,6.770363E0,1.2122032E2,5.6394012E1,1.3712036E1,5.0094215E1,0E0,6.9954586E0,4.957039E0,0E0,0E0,0E0,0E0,0E0,0E0,0E0,0E0,0E0,0E0,0E0,0E0,0E0],"parents":[2147483647,0,0,1,1,2,2,3,3,4,4,5,5,6,6,7,7,8,8,9,9,10,10,12,12,13,13],"right_children":[2,4,6,8,10,12,14,16,18,20,22,-1,24,26,-1,-1,-1,-1,-1,-1,-1,-1,-1,-1,-1,-1,-1],"split_conditions":[1E0,1E0,1E0,2.2485E2,1.6122E3,1E0,7.8812E3,1E0,1E0,1.025E2,1E0,-9.0601295E-2,1E0,1E0,-8.975949E-2,5.418201E-2,-2.1197332E-2,-2.7852673E-2,-7.531205E-2,8.444688E-2,6.122114E-2,-7.979737E-3,2.8514544E-2,-4.8927376E-3,-7.819932E-2,-7.448944E-2,-4.027461E-2],"split_indices":[19,16,16,15,15,21,15,17,17,15,21,0,5,11,0,0,0,0,0,0,0,0,0,0,0,0,0],"split_type":[0,0,0,0,0,0,0,0,0,0,0,0,0,0,0,0,0,0,0,0,0,0,0,0,0,0,0],"sum_hessian":[1.6385337E3,1.3555388E3,2.8299478E2,5.8236395E2,7.731749E2,2.0049002E2,8.2504776E1,2.1959529E2,3.6276865E2,3.9763028E2,3.7554462E2,1.842462E2,1.6243814E1,6.902566E1,1.347912E1,1.3066805E2,8.8927246E1,2.8233905E2,8.042961E1,9.2850044E1,3.0478024E2,1.7788698E2,1.9765765E2,4.5665927E0,1.1677222E1,1.53671875E1,5.365847E1],"tree_param":{"num_deleted":"0","num_feature":"23","num_nodes":"27","size_leaf_vector":"1"}},{"base_weights":[1.6297616E-2,3.323636E-1,-1.5241643E0,6.508999E-1,-8.780147E-1,-1.6761897E0,-1.031731E0,1.131101E-1,9.853683E-1,-1.3858215E0,-3.409659E-1,-8.5713476E-2,-1.1561377E0,-7.276598E-1,-1.6494339E0,3.0136231E-2,-1.7819671E-2,6.555274E-2,2.7257478E-2,-7.879987E-2,-2.8378403E-2,-3.2896582E-2,-5.1439586E-3,-1.23977875E-2,-7.503593E-2,4.6146628E-2,-4.0256318E-2,-8.797284E-2,-3.4654465E-2],"categories":[],"categories_nodes":[],"categories_segments":[],"categories_sizes":[],"default_left":[0,0,0,0,0,0,0,0,0,0,0,0,0,0,0,0,0,0,0,0,0,0,0,0,0,0,0,0,0],"id":2,"left_children":[1,3,5,7,9,11,13,15,17,19,21,-1,23,25,27,-1,-1,-1,-1,-1,-1,-1,-1,-1,-1,-1,-1,-1,-1],"loss_changes":[8.082937E2,5.3164746E2,1.9429016E1,1.9613907E2,7.7908035E1,2.2631836E0,1.1810913E1,9.664598E1,9.571155E1,2.2042511E1,1.05735E1,0E0,5.1658764E0,6.9075527E0,1.1018906E0,0E0,0E0,0E0,0E0,0E0,0E0,0E0,0E0,0E0,0E0,0E0,0E0,0E0,0E0],"parents":[2147483647,0,0,1,1,2,2,3,3,4,4,5,5,6,6,7,7,8,8,9,9,10,10,12,12,13,13,14,14],"right_children":[2,4,6,8,10,12,14,16,18,20,22,-1,24,26,28,-1,-1,-1,-1,-1,-1,-1,-1,-1,-1,-1,-1,-1,-1],"split_conditions":[1E0,1E0,9.365E1,1E0,1E0,1E0,7.2E1,6E0,1.7E1,1E0,9.42E1,-8.5713476E-2,1E0,9.395E1,1E0,3.0136231E-2,-1.7819671E-2,6.555274E-2,2.7257478E-2,-7.879987E-2,-2.8378403E-2,-3.2896582E-2,-5.1439586E-3,-1.23977875E-2,-7.503593E-2,4.6146628E-2,-4.0256318E-2,-8.797284E-2,-3.4654465E-2],"split_indices":[19,18,14,16,12,21,4,4,4,21,14,0,5,14,21,0,0,0,0,0,0,0,0,0,0,0,0,0,0],"split_type":[0,0,0,0,0,0,0,0,0,0,0,0,0,0,0,0,0,0,0,0,0,0,0,0,0,0,0,0,0],"sum_hessian":[1.6580834E3,1.3764524E3,2.8163092E2,1.0900463E3,2.8640616E2,2.1335841E2,6.82725E1,4.1849265E2,6.7155365E2,1.4639851E2,1.4000764E2,1.9666188E2,1.669653E1,4.7210575E1,2.106193E1,2.047199E2,2.1377274E2,3.8485132E2,2.8670233E2,1.18038345E2,2.8360168E1,5.9299114E1,8.0708534E1,5.0654774E0,1.1631053E1,1.6271269E0,4.5583447E1,1.8135729E1,2.9262006E0],"tree_param":{"num_deleted":"0","num_feature":"23","num_nodes":"29","size_leaf_vector":"1"}},{"base_weights":[-1.9171221E-2,2.9032144E-1,-1.4789113E0,5.97563E-1,-8.86447E-1,-1.5851654E0,-1.0919214E0,2.416387E-1,9.099316E-1,-1.3361212E0,-4.4038072E-1,-8.1983484E-2,-1.0246422E0,-8.5130703E-1,-8.434265E-2,-4.2925193E-3,2.2169832E-2,5.0352145E-2,1.4792601E-2,-7.358042E-2,-3.548913E-2,-4.8180044E-2,-1.4603885E-2,-7.8990266E-2,-3.449207E-2,-1.257535E-2,-5.213198E-2],"categories":[],"categories_nodes":[],"categories_segments":[],"categories_sizes":[],"default_left":[0,0,0,0,0,0,0,0,0,0,0,0,0,0,0,0,0,0,0,0,0,0,0,0,0,0,0],"id":3,"left_children":[1,3,5,7,9,11,13,15,17,19,21,-1,23,25,-1,-1,-1,-1,-1,-1,-1,-1,-1,-1,-1,-1,-1],"loss_changes":[7.4287537E2,4.910627E2,1.0096741E1,1.19459015E2,5.58351E1,5.1469727E0,7.8940353E0,3.3372574E1,3.3868774E1,1.0801147E1,1.0791828E1,0E0,3.0865974E0,5.2952995E0,0E0,0E0,0E0,0E0,0E0,0E0,0E0,0E0,0E0,0E0,0E0,0E0,0E0],"parents":[2147483647,0,0,1,1,2,2,3,3,4,4,5,5,6,6,7,7,8,8,9,9,10,10,12,12,13,13],"right_children":[2,4,6,8,10,12,14,16,18,20,22,-1,24,26,-1,-1,-1,-1,-1,-1,-1,-1,-1,-1,-1,-1,-1],"split_conditions":[1E0,1E0,6.3839E3,1E0,1E0,1E0,7.8812E3,1E0,1E0,1E0,1E0,-8.1983484E-2,1E0,1E0,-8.434265E-2,-4.2925193E-3,2.2169832E-2,5.0352145E-2,1.4792601E-2,-7.358042E-2,-3.548913E-2,-4.8180044E-2,-1.4603885E-2,-7.8990266E-2,-3.449207E-2,-1.257535E-2,-5.213198E-2],"split_indices":[19,18,15,21,12,21,15,13,7,21,11,0,12,8,0,0,0,0,0,0,0,0,0,0,0,0,0],"split_type":[0,0,0,0,0,0,0,0,0,0,0,0,0,0,0,0,0,0,0,0,0,0,0,0,0,0,0],"sum_hessian":[1.6423837E3,1.3557417E3,2.8664194E2,1.0754464E3,2.8029532E2,2.2246465E2,6.417729E1,5.0350626E2,5.719402E2,1.3858951E2,1.4170581E2,2.00995E2,2.1469648E1,4.742688E1,1.6750414E1,1.9216412E2,3.1134213E2,4.9329065E2,7.864955E1,1.1283248E2,2.575703E1,3.008102E1,1.1162479E2,6.6778564E0,1.4791792E1,1.2029771E1,3.5397106E1],"tree_param":{"num_deleted":"0","num_feature":"23","num_nodes":"27","size_leaf_vector":"1"}},{"base_weights":[-3.0923916E-2,2.6031116E-1,-1.4257436E0,5.5923766E-1,-8.992099E-1,-7.780628E-2,-8.479114E-1,7.93182E-2,8.370033E-1,-1.4314604E0,-3.7276277E-1,-4.3407828E-1,-1.5164801E0,3.191634E-2,-1.715598E-2,6.617861E-2,2.6316335E-2,-7.341862E-2,-3.6244716E-2,-2.8594656E-2,6.640933E-3,-6.5526515E-2,-6.9378056E-3,3.4838878E-3,-8.202507E-2],"categories":[],"categories_nodes":[],"categories_segments":[],"categories_sizes":[],"default_left":[0,0,0,0,0,0,0,0,0,0,0,0,0,0,0,0,0,0,0,0,0,0,0,0,0],"id":4,"left_children":[1,3,5,7,9,-1,11,13,15,17,19,21,23,-1,-1,-1,-1,-1,-1,-1,-1,-1,-1,-1,-1],"loss_changes":[6.609872E2,4.6710822E2,1.9855286E1,1.4268869E2,7.688661E1,0E0,1.4265675E1,9.318756E1,1.0182376E2,2.509735E0,1.4196875E1,8.804501E0,4.092293E0,0E0,0E0,0E0,0E0,0E0,0E0,0E0,0E0,0E0,0E0,0E0,0E0],"parents":[2147483647,0,0,1,1,2,2,3,3,4,4,6,6,7,7,8,8,9,9,10,10,11,11,12,12],"right_children":[2,4,6,8,10,-1,12,14,16,18,20,22,24,-1,-1,-1,-1,-1,-1,-1,-1,-1,-1,-1,-1],"split_conditions":[1E0,1E0,1.031E2,6.815E1,1E0,-7.780628E-2,7.73265E3,4E0,9E0,9.09E1,1.046E2,1E0,7E1,3.191634E-2,-1.715598E-2,6.617861E-2,2.6316335E-2,-7.341862E-2,-3.6244716E-2,-2.8594656E-2,6.640933E-3,-6.5526515E-2,-6.9378056E-3,3.4838878E-3,-8.202507E-2],"split_indices":[19,18,14,14,12,0,15,4,4,14,14,13,4,0,0,0,0,0,0,0,0,0,0,0,0],"split_type":[0,0,0,0,0,0,0,0,0,0,0,0,0,0,0,0,0,0,0,0,0,0,0,0,0],"sum_hessian":[1.6252504E3,1.345191E3,2.8005936E2,1.0698894E3,2.7530164E2,2.2711917E2,5.2940174E1,3.926903E2,6.771991E2,1.3604143E2,1.392602E2,3.3718338E1,1.9221836E1,1.6880325E2,2.2388704E2,2.626255E2,4.1457358E2,1.2826262E2,7.778801E0,9.981536E1,3.944483E1,7.6316447E0,2.6086693E1,1.4257345E0,1.7796103E1],"tree_param":{"num_deleted":"0","num_feature":"23","num_nodes":"25","size_leaf_vector":"1"}},{"base_weights":[-3.0107843E-2,2.4860819E-1,-1.3568805E0,5.369863E-1,-8.280924E-1,-1.5046314E0,-9.398293E-1,4.8311614E-3,8.66415E-1,-1.2722508E0,-3.7536567E-1,-7.710221E-2,-1.0381557E0,-7.407847E-1,-7.8623794E-2,1.9992221E-2,-2.9650379E-2,5.8302995E-2,2.0959105E-2,-6.600839E-2,-1.9332774E-2,-4.9455326E-2,-9.179031E-3,-7.0134676E-3,-6.832778E-2,-1.1676933E-2,-4.2602744E-2],"categories":[],"categories_nodes":[],"categories_segments":[],"categories_sizes":[],"default_left":[0,0,0,0,0,0,0,0,0,0,0,0,0,0,0,0,0,0,0,0,0,0,0,0,0,0,0],"id":5,"left_children":[1,3,5,7,9,11,13,15,17,19,21,-1,23,25,-1,-1,-1,-1,-1,-1,-1,-1,-1,-1,-1,-1,-1],"loss_changes":[5.977381E2,4.1523495E2,1.5876953E1,1.8481985E2,5.634944E1,1.986206E0,8.414307E0,9.567049E1,8.677536E1,5.525284E0,1.6458736E1,0E0,5.210594E0,3.173706E0,0E0,0E0,0E0,0E0,0E0,0E0,0E0,0E0,0E0,0E0,0E0,0E0,0E0],"parents":[2147483647,0,0,1,1,2,2,3,3,4,4,5,5,6,6,7,7,8,8,9,9,10,10,12,12,13,13],"right_children":[2,4,6,8,10,12,14,16,18,20,22,-1,24,26,-1,-1,-1,-1,-1,-1,-1,-1,-1,-1,-1,-1,-1],"split_conditions":[1E0,1E0,9.185E1,1E0,1E0,1E0,7.8812E3,3.561E2,1.55395E3,5.75E3,1E0,-7.710221E-2,1E0,9.65E1,-7.8623794E-2,1.9992221E-2,-2.9650379E-2,5.8302995E-2,2.0959105E-2,-6.600839E-2,-1.9332774E-2,-4.9455326E-2,-9.179031E-3,-7.0134676E-3,-6.832778E-2,-1.1676933E-2,-4.2602744E-2],"split_indices":[19,18,14,16,11,21,15,15,15,15,12,0,5,14,0,0,0,0,0,0,0,0,0,0,0,0,0],"split_type":[0,0,0,0,0,0,0,0,0,0,0,0,0,0,0,0,0,0,0,0,0,0,0,0,0,0,0],"sum_hessian":[1.6145012E3,1.3348921E3,2.7960907E2,1.0532865E3,2.8160568E2,2.0453845E2,7.507062E1,4.0311465E2,6.5017175E2,1.4123425E2,1.4037144E2,1.872173E2,1.7321152E1,5.875571E1,1.6314909E1,2.4293204E2,1.6018263E2,3.883626E2,2.6180914E2,1.335192E2,7.7150474E0,3.243077E1,1.0794067E2,5.020797E0,1.2300355E1,1.1127545E1,4.7628166E1],"tree_param":{"num_deleted":"0","num_feature":"23","num_nodes":"27","size_leaf_vector":"1"}},{"base_weights":[1.343183E-2,2.8246552E-1,-1.3310378E0,5.5515045E-1,-7.8718334E-1,-1.4654664E0,-7.2380584E-1,7.773484E-2,8.52931E-1,-1.1816471E0,-3.0407578E-1,-7.5496666E-2,-9.863193E-1,-2.933038E-1,-1.4144418E0,2.5391325E-2,-1.5164591E-2,5.8815856E-2,2.6162302E-2,-4.455669E-2,-6.565245E-2,-1.1183544E-2,-8.1318766E-2,9.915907E-3,-6.351726E-2,-4.224885E-2,-1.1386846E-3,5.011699E-3,-7.7025585E-2],"categories":[],"categories_nodes":[],"categories_segments":[],"categories_sizes":[],"default_left":[0,0,0,0,0,0,0,0,0,0,0,0,0,0,0,0,0,0,0,0,0,0,0,0,0,0,0,0,0],"id":6,"left_children":[1,3,5,7,9,11,13,15,17,19,21,-1,23,25,27,-1,-1,-1,-1,-1,-1,-1,-1,-1,-1,-1,-1,-1,-1],"loss_changes":[5.840565E2,3.9287173E2,2.0916992E1,1.5243594E2,5.1804962E1,3.1866455E0,1.4681959E1,6.7862404E1,6.980884E1,4.569092E0,1.2860938E1,0E0,7.49308E0,4.8372374E0,3.8275948E0,0E0,0E0,0E0,0E0,0E0,0E0,0E0,0E0,0E0,0E0,0E0,0E0,0E0,0E0],"parents":[2147483647,0,0,1,1,2,2,3,3,4,4,5,5,6,6,7,7,8,8,9,9,10,10,12,12,13,13,14,14],"right_children":[2,4,6,8,10,12,14,16,18,20,22,-1,24,26,28,-1,-1,-1,-1,-1,-1,-1,-1,-1,-1,-1,-1,-1,-1],"split_conditions":[1E0,1E0,1.0395E2,1E0,7.935E1,1E0,7.73265E3,6E0,1.16075E3,2.4E1,7.1E1,-7.5496666E-2,1E0,1.0575E2,7E1,2.5391325E-2,-1.5164591E-2,5.8815856E-2,2.6162302E-2,-4.455669E-2,-6.565245E-2,-1.1183544E-2,-8.1318766E-2,9.915907E-3,-6.351726E-2,-4.224885E-2,-1.1386846E-3,5.011699E-3,-7.7025585E-2],"split_indices":[19,18,14,16,14,21,15,4,15,4,4,0,5,14,4,0,0,0,0,0,0,0,0,0,0,0,0,0,0],"split_type":[0,0,0,0,0,0,0,0,0,0,0,0,0,0,0,0,0,0,0,0,0,0,0,0,0,0,0,0,0],"sum_hessian":[1.6126804E3,1.3444421E3,2.6823828E2,1.0717123E3,2.7272995E2,2.1846198E2,4.977631E1,4.1216742E2,6.595448E2,1.4934328E2,1.2338668E2,1.979409E2,2.0521078E1,3.1540497E1,1.8235813E1,1.9346126E2,2.1870615E2,3.3165674E2,3.2788806E2,4.893526E1,1.0040802E2,1.1741612E2,5.9705544E0,4.0269437E0,1.6494133E1,9.679123E0,2.1861374E1,1.4169319E0,1.681888E1],"tree_param":{"num_deleted":"0","num_feature":"23","num_nodes":"29","size_leaf_vector":"1"}},{"base_weights":[3.772263E-3,2.530588E-1,-1.2779037E0,5.094839E-1,-7.524314E-1,-1.4189743E0,-8.976948E-1,3.2297898E-2,8.1076396E-1,-1.1388898E0,-3.5433367E-1,-7.290561E-2,-9.2424196E-1,-5.1323926E-1,-1.1140846E0,2.3835072E-2,-1.9863697E-2,5.4156423E-2,1.8999493E-2,-6.512871E-2,-2.4278596E-2,-3.0875776E-2,-1.7452453E-3,-7.132788E-3,-6.2248822E-2,8.584152E-3,-4.460187E-2,-3.0028215E-2,-6.427118E-2],"categories":[],"categories_nodes":[],"categories_segments":[],"categories_sizes":[],"default_left":[0,0,0,0,0,0,0,0,0,0,0,0,0,0,0,0,0,0,0,0,0,0,0,0,0,0,0,0,0],"id":7,"left_children":[1,3,5,7,9,11,13,15,17,19,21,-1,23,25,27,-1,-1,-1,-1,-1,-1,-1,-1,-1,-1,-1,-1,-1,-1],"loss_changes":[5.21501E2,3.5269427E2,1.2981384E1,1.5658804E2,4.237651E1,2.372467E0,5.63826E0,8.087363E1,7.793033E1,1.4407745E1,1.1615318E1,0E0,4.0378523E0,7.609078E0,3.355381E0,0E0,0E0,0E0,0E0,0E0,0E0,0E0,0E0,0E0,0E0,0E0,0E0,0E0,0E0],"parents":[2147483647,0,0,1,1,2,2,3,3,4,4,5,5,6,6,7,7,8,8,9,9,10,10,12,12,13,13,14,14],"right_children":[2,4,6,8,10,12,14,16,18,20,22,-1,24,26,28,-1,-1,-1,-1,-1,-1,-1,-1,-1,-1,-1,-1,-1,-1],"split_conditions":[1E0,1E0,9.185E1,1E0,1E0,1E0,1E0,6E0,2E1,1E0,9.99E1,-7.290561E-2,1E0,1E0,1E0,2.3835072E-2,-1.9863697E-2,5.4156423E-2,1.8999493E-2,-6.512871E-2,-2.4278596E-2,-3.0875776E-2,-1.7452453E-3,-7.132788E-3,-6.2248822E-2,8.584152E-3,-4.460187E-2,-3.0028215E-2,-6.427118E-2],"split_indices":[19,18,14,16,12,21,7,4,4,21,14,0,5,10,8,0,0,0,0,0,0,0,0,0,0,0,0,0,0],"split_type":[0,0,0,0,0,0,0,0,0,0,0,0,0,0,0,0,0,0,0,0,0,0,0,0,0,0,0,0,0],"sum_hessian":[1.6302056E3,1.3654312E3,2.647744E2,1.0883644E3,2.7706677E2,1.911274E2,7.364702E1,4.2164468E2,6.667197E2,1.396444E2,1.3742238E2,1.7531142E2,1.5815977E1,2.7737743E1,4.5909275E1,2.0719067E2,2.1445401E2,4.0753452E2,2.591852E2,1.1087229E2,2.8772102E1,7.483312E1,6.2589252E1,5.022239E0,1.0793737E1,1.0072308E1,1.7665436E1,1.2612739E1,3.3296535E1],"tree_param":{"num_deleted":"0","num_feature":"23","num_nodes":"29","size_leaf_vector":"1"}},{"base_weights":[8.710338E-3,2.585298E-1,-1.2510912E0,-2.2327586E-1,6.2191546E-1,-1.3850877E0,-8.558182E-1,1.8400642E-1,-7.689657E-1,9.377265E-1,1.4334191E-1,-1.421627E0,-9.400713E-1,6.672134E-2,-9.188064E-1,2.4418823E-2,-2.0164026E-2,-4.6535335E-2,-1.4922852E-2,5.650715E-2,3.5688438E-2,-6.6982233E-3,2.1064665E-2,-7.2266184E-2,-5.2400935E-2,-7.0715964E-2,-2.4026912E-2,-3.4082178E-2,-6.932232E-2],"categories":[],"categories_nodes":[],"categories_segments":[],"categories_sizes":[],"default_left":[0,0,0,0,0,0,0,0,0,0,0,0,0,0,0,0,0,0,0,0,0,0,0,0,0,0,0,0,0],"id":8,"left_children":[1,3,5,7,9,11,13,15,17,19,21,23,25,-1,27,-1,-1,-1,-1,-1,-1,-1,-1,-1,-1,-1,-1,-1,-1],"loss_changes":[5.0322302E2,2.3375156E2,1.2829285E1,1.2780526E2,1.1486633E2,1.8505249E0,1.082901E1,5.913671E1,1.8419174E1,1.8939362E1,2.3463192E1,7.15332E-2,3.2047482E0,0E0,6.6246834E0,0E0,0E0,0E0,0E0,0E0,0E0,0E0,0E0,0E0,0E0,0E0,0E0,0E0,0E0],"parents":[2147483647,0,0,1,1,2,2,3,3,4,4,5,5,6,6,7,7,8,8,9,9,10,10,11,11,12,12,14,14],"right_children":[2,4,6,8,10,12,14,16,18,20,22,24,26,-1,28,-1,-1,-1,-1,-1,-1,-1,-1,-1,-1,-1,-1,-1,-1],"split_conditions":[1E0,1E0,9.365E1,1.7E1,2.7E1,1E0,9.395E1,1E0,1E0,9E0,1E0,1E0,6.4E1,6.672134E-2,7.2E1,2.4418823E-2,-2.0164026E-2,-4.6535335E-2,-1.4922852E-2,5.650715E-2,3.5688438E-2,-6.6982233E-3,2.1064665E-2,-7.2266184E-2,-5.2400935E-2,-7.0715964E-2,-2.4026912E-2,-3.4082178E-2,-6.932232E-2],"split_indices":[19,16,14,4,4,21,14,17,21,4,21,1,4,0,4,0,0,0,0,0,0,0,0,0,0,0,0,0,0],"split_type":[0,0,0,0,0,0,0,0,0,0,0,0,0,0,0,0,0,0,0,0,0,0,0,0,0,0,0,0,0],"sum_hessian":[1.5969117E3,1.3333103E3,2.636015E2,5.7341565E2,7.5989465E2,1.9499472E2,6.86068E1,3.2872818E2,2.4468747E2,4.5721722E2,3.0267743E2,1.7817094E2,1.6823776E1,1.3536016E0,6.725319E1,2.1662666E2,1.1210151E2,1.8136409E2,6.3323376E1,2.4374985E2,2.1346736E2,1.5177382E2,1.5090361E2,1.6484674E2,1.3324205E1,7.2568355E0,9.566941E0,4.6253452E1,2.099974E1],"tree_param":{"num_deleted":"0","num_feature":"23","num_nodes":"29","size_leaf_vector":"1"}},{"base_weights":[8.560252E-3,5.738531E-1,-4.4255915E-1,7.8644663E-1,-4.987342E-1,-9.844637E-1,3.5107847E-2,9.051417E-1,7.772159E-2,3.6539483E-1,-9.834322E-1,-4.142716E-1,-1.1204032E0,2.7570897E-1,-6.008269E-1,3.280569E-2,5.4898657E-2,-5.502964E-3,5.410133E-2,-4.636895E-2,2.86777E-2,-5.448043E-2,-7.2135753E-3,6.2754317E-3,-6.1820187E-2,-6.799561E-2,-4.69074E-2,2.0461513E-2,-1.3413298E-2,-1.2359465E-2,-4.8394453E-2],"categories":[],"categories_nodes":[],"categories_segments":[],"categories_sizes":[],"default_left":[0,0,0,0,0,0,0,0,0,0,0,0,0,0,0,0,0,0,0,0,0,0,0,0,0,0,0,0,0,0,0],"id":9,"left_children":[1,3,5,7,9,11,13,15,17,19,21,23,25,27,29,-1,-1,-1,-1,-1,-1,-1,-1,-1,-1,-1,-1,-1,-1,-1,-1],"loss_changes":[4.0573004E2,1.6140953E2,2.290839E2,4.9537964E1,4.9540035E1,3.1671844E1,7.227425E1,2.353122E1,1.6279322E1,1.2082862E1,6.5694885E0,3.627886E1,1.3312317E1,2.4993704E1,1.6593597E1,0E0,0E0,0E0,0E0,0E0,0E0,0E0,0E0,0E0,0E0,0E0,0E0,0E0,0E0,0E0,0E0],"parents":[2147483647,0,0,1,1,2,2,3,3,4,4,5,5,6,6,7,7,8,8,9,9,10,10,11,11,12,12,13,13,14,14],"right_children":[2,4,6,8,10,12,14,16,18,20,22,24,26,28,30,-1,-1,-1,-1,-1,-1,-1,-1,-1,-1,-1,-1,-1,-1,-1,-1],"split_conditions":[1.7E1,1E0,1E0,1E0,2E0,1E0,6E1,7.08E1,9.395E1,1.945E1,1.5E1,1E0,4.825E1,1E0,1E0,3.280569E-2,5.4898657E-2,-5.502964E-3,5.410133E-2,-4.636895E-2,2.86777E-2,-5.448043E-2,-7.2135753E-3,6.2754317E-3,-6.1820187E-2,-6.799561E-2,-4.69074E-2,2.0461513E-2,-1.3413298E-2,-1.2359465E-2,-4.8394453E-2],"split_indices":[4,17,16,7,4,5,4,14,14,14,4,10,14,18,7,0,0,0,0,0,0,0,0,0,0,0,0,0,0,0,0],"split_type":[0,0,0,0,0,0,0,0,0,0,0,0,0,0,0,0,0,0,0,0,0,0,0,0,0,0,0,0,0,0,0],"sum_hessian":[1.5890115E3,7.051383E2,8.8387317E2,5.887175E2,1.1642076E2,4.1359555E2,4.7027765E2,5.0402744E2,8.469011E1,4.1923992E1,7.449677E1,8.0401695E1,3.3319385E2,3.4160168E2,1.2867596E2,2.2188339E2,2.8214404E2,7.209963E1,1.2590484E1,5.33511E0,3.6588882E1,6.586467E1,8.632102E0,4.9046795E1,3.1354898E1,1.4118945E2,1.920044E2,2.7447754E2,6.712414E1,6.638871E1,6.228725E1],"tree_param":{"num_deleted":"0","num_feature":"23","num_nodes":"31","size_leaf_vector":"1"}},{"base_weights":[-5.579041E-3,2.2683065E-1,-1.2043504E0,4.594635E-1,-6.894929E-1,-1.2596885E0,-8.078628E-1,5.616627E-1,-3.9767128E-1,-1.0646691E0,-3.248296E-1,-1.3099965E0,-8.3841985E-1,-1.3153623E-1,-1.3045807E0,4.4688623E-2,1.2730871E-2,2.317636E-2,-4.710381E-2,-6.095582E-2,-2.1484923E-2,-3.242214E-3,-2.5927503E-2,-6.699266E-2,-4.6959665E-2,-6.741965E-2,-2.9104436E-2,8.695876E-3,-5.6563433E-2,-2.1726368E-3,-7.159745E-2],"categories":[],"categories_nodes":[],"categories_segments":[],"categories_sizes":[],"default_left":[0,0,0,0,0,0,0,0,0,0,0,0,0,0,0,0,0,0,0,0,0,0,0,0,0,0,0,0,0,0,0],"id":10,"left_children":[1,3,5,7,9,11,13,15,17,19,21,23,25,27,29,-1,-1,-1,-1,-1,-1,-1,-1,-1,-1,-1,-1,-1,-1,-1,-1],"loss_changes":[4.3328354E2,2.780003E2,4.5234375E0,9.128232E1,3.579373E1,3.5604858E0,1.1156078E1,9.4523315E1,5.2630505E1,1.2201706E1,6.7853394E0,8.959961E-1,2.6438408E0,4.8964868E0,3.042511E0,0E0,0E0,0E0,0E0,0E0,0E0,0E0,0E0,0E0,0E0,0E0,0E0,0E0,0E0,0E0,0E0],"parents":[2147483647,0,0,1,1,2,2,3,3,4,4,5,5,6,6,7,7,8,8,9,9,10,10,11,11,12,12,13,13,14,14],"right_children":[2,4,6,8,10,12,14,16,18,20,22,24,26,28,30,-1,-1,-1,-1,-1,-1,-1,-1,-1,-1,-1,-1,-1,-1,-1,-1],"split_conditions":[1E0,1E0,7.2348E3,1E0,1E0,1E0,7.2E1,1.1E1,2.47E1,1E0,1E0,6.54865E3,1E0,7.8812E3,7.4055E3,4.4688623E-2,1.2730871E-2,2.317636E-2,-4.710381E-2,-6.095582E-2,-2.1484923E-2,-3.242214E-3,-2.5927503E-2,-6.699266E-2,-4.6959665E-2,-6.741965E-2,-2.9104436E-2,8.695876E-3,-5.6563433E-2,-2.1726368E-3,-7.159745E-2],"split_indices":[19,18,15,17,12,21,4,4,15,21,2,15,12,15,15,0,0,0,0,0,0,0,0,0,0,0,0,0,0,0,0],"split_type":[0,0,0,0,0,0,0,0,0,0,0,0,0,0,0,0,0,0,0,0,0,0,0,0,0,0,0,0,0,0,0],"sum_hessian":[1.553203E3,1.3016572E3,2.5154575E2,1.0385042E3,2.6315305E2,2.1882675E2,3.2718987E1,9.281789E2,1.1032528E2,1.2876068E2,1.3439238E2,1.9359761E2,2.5229141E1,1.4390212E1,1.8328773E1,4.4497217E2,4.8320673E2,4.2787678E1,6.75376E1,1.02829094E2,2.5931595E1,5.79519E1,7.644047E1,1.7675233E2,1.6845282E1,7.0141244E0,1.8215017E1,1.1655177E1,2.735035E0,1.804344E0,1.652443E1],"tree_param":{"num_deleted":"0","num_feature":"23","num_nodes":"31","size_leaf_vector":"1"}},{"base_weights":[3.7536167E-2,2.4865943E-1,-1.1200517E0,4.5246115E-1,-5.611726E-1,-1.3214258E0,-6.245238E-1,8.407865E-2,6.968445E-1,-1.0045744E0,-1.5863189E-1,-6.755865E-2,-9.229113E-1,-4.4942236E-1,-6.747163E-2,2.1386875E-2,-1.3187899E-2,4.7135E-2,1.7504534E-2,-6.0171206E-2,-1.2459997E-2,-1.7885022E-2,1.02140745E-2,8.289781E-4,-6.7674644E-2,-3.6298342E-2,-4.920855E-3],"categories":[],"categories_nodes":[],"categories_segments":[],"categories_sizes":[],"default_left":[0,0,0,0,0,0,0,0,0,0,0,0,0,0,0,0,0,0,0,0,0,0,0,0,0,0,0],"id":11,"left_children":[1,3,5,7,9,11,13,15,17,19,21,-1,23,25,-1,-1,-1,-1,-1,-1,-1,-1,-1,-1,-1,-1,-1],"loss_changes":[3.8275162E2,2.1884082E2,2.3281158E1,9.525021E1,4.744896E1,7.786865E-1,8.494888E0,5.0719814E1,5.391684E1,1.873671E1,1.0259245E1,0E0,6.100175E0,5.6800213E0,0E0,0E0,0E0,0E0,0E0,0E0,0E0,0E0,0E0,0E0,0E0,0E0,0E0],"parents":[2147483647,0,0,1,1,2,2,3,3,4,4,5,5,6,6,7,7,8,8,9,9,10,10,12,12,13,13],"right_children":[2,4,6,8,10,12,14,16,18,20,22,-1,24,26,-1,-1,-1,-1,-1,-1,-1,-1,-1,-1,-1,-1,-1],"split_conditions":[1E0,1E0,9.185E1,1E0,1E0,1E0,7.8812E3,2.2485E2,1.6122E3,1E0,1.031E2,-6.755865E-2,1E0,1.0575E2,-6.747163E-2,2.1386875E-2,-1.3187899E-2,4.7135E-2,1.7504534E-2,-6.0171206E-2,-1.2459997E-2,-1.7885022E-2,1.02140745E-2,8.289781E-4,-6.7674644E-2,-3.6298342E-2,-4.920855E-3],"split_indices":[19,18,14,16,12,21,15,15,15,21,14,0,5,14,0,0,0,0,0,0,0,0,0,0,0,0,0],"split_type":[0,0,0,0,0,0,0,0,0,0,0,0,0,0,0,0,0,0,0,0,0,0,0,0,0,0,0],"sum_hessian":[1.5639873E3,1.3234069E3,2.4058047E2,1.0576746E3,2.6573227E2,1.6987819E2,7.0702286E1,4.2235797E2,6.353166E2,1.257367E2,1.3999556E2,1.5585391E2,1.4024279E1,5.8251602E1,1.2450683E1,2.123393E2,2.1001866E2,3.7073758E2,2.6457898E2,9.906503E1,2.6671667E1,9.041478E1,4.958078E1,4.709676E0,9.314602E0,3.1984169E1,2.6267431E1],"tree_param":{"num_deleted":"0","num_feature":"23","num_nodes":"27","size_leaf_vector":"1"}},{"base_weights":[-3.621493E-3,4.0811387E-1,-4.963356E-1,6.1778957E-1,-6.409652E-1,-9.74188E-1,-9.954898E-2,7.34004E-1,5.6915782E-2,1.5686014E-1,-9.446355E-1,-1.0371358E0,-4.0058094E-1,1.691507E-1,-6.4307725E-1,5.6812823E-2,3.0497918E-2,-8.225711E-3,3.3665467E-2,-6.0762387E-2,1.8145915E-2,-4.9709085E-2,9.088488E-2,-3.3928167E-2,-5.5968266E-2,-3.4996975E-2,6.9384538E-3,-6.7313383E-3,2.2635316E-2,-2.3987304E-2,-4.967771E-2],"categories":[],"categories_nodes":[],"categories_segments":[],"categories_sizes":[],"default_left":[0,0,0,0,0,0,0,0,0,0,0,0,0,0,0,0,0,0,0,0,0,0,0,0,0,0,0,0,0,0,0],"id":12,"left_children":[1,3,5,7,9,11,13,15,17,19,21,23,25,27,29,-1,-1,-1,-1,-1,-1,-1,-1,-1,-1,-1,-1,-1,-1,-1,-1],"loss_changes":[3.124497E2,1.849555E2,1.3284113E2,4.5571228E1,3.4127888E1,1.1065216E1,5.6215378E1,2.8227081E1,1.6652271E1,1.1615695E1,1.5730003E1,7.669861E0,5.4368625E0,2.2273478E1,6.810421E0,0E0,0E0,0E0,0E0,0E0,0E0,0E0,0E0,0E0,0E0,0E0,0E0,0E0,0E0,0E0,0E0],"parents":[2147483647,0,0,1,1,2,2,3,3,4,4,5,5,6,6,7,7,8,8,9,9,10,10,11,11,12,12,13,13,14,14],"right_children":[2,4,6,8,10,12,14,16,18,20,22,24,26,28,30,-1,-1,-1,-1,-1,-1,-1,-1,-1,-1,-1,-1,-1,-1,-1,-1],"split_conditions":[2.6E1,1E0,1E0,1E0,2.47E1,1E0,6E1,2E0,8.93E1,1.945E1,6.3295E2,1E0,1E0,1E0,7.1E1,5.6812823E-2,3.0497918E-2,-8.225711E-3,3.3665467E-2,-6.0762387E-2,1.8145915E-2,-4.9709085E-2,9.088488E-2,-3.3928167E-2,-5.5968266E-2,-3.4996975E-2,6.9384538E-3,-6.7313383E-3,2.2635316E-2,-2.3987304E-2,-4.967771E-2],"split_indices":[4,17,16,10,15,1,4,4,14,14,15,5,20,21,4,0,0,0,0,0,0,0,0,0,0,0,0,0,0,0,0],"split_type":[0,0,0,0,0,0,0,0,0,0,0,0,0,0,0,0,0,0,0,0,0,0,0,0,0,0,0,0,0,0,0],"sum_hessian":[1.5381654E3,8.380351E2,7.001303E2,6.9878296E2,1.3925215E2,3.1695926E2,3.8317105E2,5.785892E2,1.201938E2,3.8523575E1,1.0072858E2,2.848875E2,3.2071747E1,2.5687207E2,1.2629898E2,1.3444714E2,4.4414203E2,8.89669E1,3.1226904E1,4.3904805E0,3.4133095E1,9.958253E1,1.1460536E0,5.48703E1,2.3001721E2,2.0432972E1,1.1638777E1,1.24267555E2,1.3260452E2,8.776643E1,3.853255E1],"tree_param":{"num_deleted":"0","num_feature":"23","num_nodes":"31","size_leaf_vector":"1"}},{"base_weights":[2.3808729E-2,2.2221637E-1,-1.0695817E0,4.2850965E-1,-6.2859935E-1,-6.103648E-2,-7.06971E-1,7.130109E-2,6.710896E-1,-1.0565773E0,-2.2265881E-1,-5.562122E-1,-6.5040946E-2,2.8292522E-2,-4.6965214E-3,4.6126265E-2,2.0897066E-2,-5.4692633E-2,-1.6430456E-2,-2.4263812E-3,-3.1009221E-2,-4.378378E-2,-5.9558023E-3],"categories":[],"categories_nodes":[],"categories_segments":[],"categories_sizes":[],"default_left":[0,0,0,0,0,0,0,0,0,0,0,0,0,0,0,0,0,0,0,0,0,0,0],"id":13,"left_children":[1,3,5,7,9,-1,11,13,15,17,19,21,-1,-1,-1,-1,-1,-1,-1,-1,-1,-1,-1],"loss_changes":[3.348622E2,2.2956755E2,1.21310425E1,9.1115005E1,4.4127563E1,0E0,5.73378E0,3.4914246E1,3.9487976E1,3.0062256E0,9.129019E0,8.171944E0,0E0,0E0,0E0,0E0,0E0,0E0,0E0,0E0,0E0,0E0,0E0],"parents":[2147483647,0,0,1,1,2,2,3,3,4,4,6,6,7,7,8,8,9,9,10,10,11,11],"right_children":[2,4,6,8,10,-1,12,14,16,18,20,22,-1,-1,-1,-1,-1,-1,-1,-1,-1,-1,-1],"split_conditions":[1E0,1E0,9.185E1,1E0,1E0,-6.103648E-2,7.8812E3,1E0,1.16075E3,5.46845E3,1E0,1.0575E2,-6.5040946E-2,2.8292522E-2,-4.6965214E-3,4.6126265E-2,2.0897066E-2,-5.4692633E-2,-1.6430456E-2,-2.4263812E-3,-3.1009221E-2,-4.378378E-2,-5.9558023E-3],"split_indices":[19,18,14,16,12,0,15,5,15,15,3,14,0,0,0,0,0,0,0,0,0,0,0],"split_type":[0,0,0,0,0,0,0,0,0,0,0,0,0,0,0,0,0,0,0,0,0,0,0],"sum_hessian":[1.541496E3,1.3054115E3,2.3608443E2,1.0510619E3,2.5434967E2,1.6495808E2,7.112635E1,4.256173E2,6.254446E2,1.2303385E2,1.3131583E2,5.827009E1,1.2856265E1,1.0598182E2,3.196355E2,3.1245703E2,3.1298752E2,1.1656271E2,6.471138E0,9.209627E1,3.921956E1,3.308537E1,2.5184721E1],"tree_param":{"num_deleted":"0","num_feature":"23","num_nodes":"23","size_leaf_vector":"1"}},{"base_weights":[-1.8818004E-2,1.7741059E-1,-1.0916339E0,-1.4103055E-1,5.3581643E-1,-1.2227904E0,-5.492069E-1,2.3965679E-1,-3.287384E-1,9.549563E-1,4.0390846E-1,-1.2614636E0,-9.2373574E-1,-1.2070821E-1,-6.645086E-2,3.467754E-2,-1.770802E-2,-3.5439555E-2,3.9283233E-4,-1.6273654E-3,5.155293E-2,-8.578831E-4,2.6824802E-2,-3.641015E-2,-6.378128E-2,-1.7304652E-3,-7.149899E-2,2.8903073E-2,-1.7286709E-2],"categories":[],"categories_nodes":[],"categories_segments":[],"categories_sizes":[],"default_left":[0,0,0,0,0,0,0,0,0,0,0,0,0,0,0,0,0,0,0,0,0,0,0,0,0,0,0,0,0],"id":14,"left_children":[1,3,5,7,9,11,13,15,17,19,21,23,25,27,-1,-1,-1,-1,-1,-1,-1,-1,-1,-1,-1,-1,-1,-1,-1],"loss_changes":[3.1904465E2,1.4630829E2,1.6E1,4.861682E1,3.295378E1,1.0078125E0,1.5693077E1,6.0861847E1,5.825655E1,1.0826416E1,2.5712563E1,3.0691528E-1,1.1316364E1,5.18745E0,0E0,0E0,0E0,0E0,0E0,0E0,0E0,0E0,0E0,0E0,0E0,0E0,0E0,0E0,0E0],"parents":[2147483647,0,0,1,1,2,2,3,3,4,4,5,5,6,6,7,7,8,8,9,9,10,10,11,11,12,12,13,13],"right_children":[2,4,6,8,10,12,14,16,18,20,22,24,26,28,-1,-1,-1,-1,-1,-1,-1,-1,-1,-1,-1,-1,-1,-1,-1],"split_conditions":[1E0,1E0,1.0395E2,3.561E2,1.981E2,9.185E1,7.73265E3,1E0,1E0,2.475E1,1E0,1.94E1,9.565E1,6.44185E3,-6.645086E-2,3.467754E-2,-1.770802E-2,-3.5439555E-2,3.9283233E-4,-1.6273654E-3,5.155293E-2,-8.578831E-4,2.6824802E-2,-3.641015E-2,-6.378128E-2,-1.7304652E-3,-7.149899E-2,2.8903073E-2,-1.7286709E-2],"split_indices":[19,21,14,15,15,14,15,17,16,14,16,14,14,15,0,0,0,0,0,0,0,0,0,0,0,0,0,0,0],"split_type":[0,0,0,0,0,0,0,0,0,0,0,0,0,0,0,0,0,0,0,0,0,0,0,0,0,0,0,0,0],"sum_hessian":[1.513608E3,1.2802689E3,2.3333916E2,6.782526E2,6.0201624E2,1.8689456E2,4.6444595E1,2.2389597E2,4.5435663E2,1.4261502E2,4.5940125E2,1.6264355E2,2.4251007E1,3.0719368E1,1.5725228E1,1.268036E2,9.709238E1,2.1288283E2,2.414738E2,1.0245223E1,1.323698E2,1.1022474E2,3.4917648E2,5.5636854E0,1.5707986E2,9.185934E0,1.5065073E1,7.100726E0,2.3618643E1],"tree_param":{"num_deleted":"0","num_feature":"23","num_nodes":"29","size_leaf_vector":"1"}},{"base_weights":[-6.6007567E-3,1.7852144E-1,-1.0482595E0,3.6719033E-1,-5.6351995E-1,-1.1920806E0,-4.7589815E-1,3.6414699E-3,6.0483986E-1,-8.64786E-1,-2.7314168E-1,-6.10401E-2,-9.2969084E-1,-5.100605E-2,-6.4865515E-2,2.1936355E-2,-1.3337371E-2,4.3847453E-2,1.6734546E-2,-1.8979976E-2,-4.9889605E-2,5.1855277E-2,-1.7102113E-2,-1.5427272E-2,-6.8344995E-2,1.3818181E-2,-2.993211E-2],"categories":[],"categories_nodes":[],"categories_segments":[],"categories_sizes":[],"default_left":[0,0,0,0,0,0,0,0,0,0,0,0,0,0,0,0,0,0,0,0,0,0,0,0,0,0,0],"id":15,"left_children":[1,3,5,7,9,11,13,15,17,19,21,-1,23,25,-1,-1,-1,-1,-1,-1,-1,-1,-1,-1,-1,-1,-1],"loss_changes":[2.892231E2,1.7850485E2,1.8063492E1,8.777667E1,2.2383194E1,2.2314453E-1,1.6377468E1,4.7482258E1,4.4868958E1,7.7808228E0,1.2372599E1,0E0,5.5456448E0,5.9191175E0,0E0,0E0,0E0,0E0,0E0,0E0,0E0,0E0,0E0,0E0,0E0,0E0,0E0],"parents":[2147483647,0,0,1,1,2,2,3,3,4,4,5,5,6,6,7,7,8,8,9,9,10,10,12,12,13,13],"right_children":[2,4,6,8,10,12,14,16,18,20,22,-1,24,26,-1,-1,-1,-1,-1,-1,-1,-1,-1,-1,-1,-1,-1],"split_conditions":[1E0,1E0,1.0395E2,1E0,7.235E1,9.185E1,7.73265E3,4E0,1.5E1,1E0,7.44E1,-6.10401E-2,9.565E1,1E0,-6.4865515E-2,2.1936355E-2,-1.3337371E-2,4.3847453E-2,1.6734546E-2,-1.8979976E-2,-4.9889605E-2,5.1855277E-2,-1.7102113E-2,-1.5427272E-2,-6.8344995E-2,1.3818181E-2,-2.993211E-2],"split_indices":[19,18,14,16,14,14,15,4,4,5,14,0,14,3,0,0,0,0,0,0,0,0,0,0,0,0,0],"split_type":[0,0,0,0,0,0,0,0,0,0,0,0,0,0,0,0,0,0,0,0,0,0,0,0,0,0,0],"sum_hessian":[1.4978838E3,1.2725555E3,2.2532825E2,1.01499225E3,2.5756326E2,1.7921336E2,4.6114887E1,4.016207E2,6.133716E2,1.2544086E2,1.321224E2,1.5823972E2,2.0973652E1,3.1093327E1,1.502156E1,1.536915E2,2.479292E2,3.044581E2,3.0891345E2,2.7818201E1,9.762265E1,5.8986473E0,1.26223755E2,9.368907E0,1.1604744E1,1.9770271E1,1.1323056E1],"tree_param":{"num_deleted":"0","num_feature":"23","num_nodes":"27","size_leaf_vector":"1"}},{"base_weights":[8.3031127E-4,1.775094E-1,-1.0167046E0,3.5158658E-1,-5.174417E-1,-1.1389898E0,-7.3352015E-1,5.918341E-2,6.0945326E-1,-9.295237E-1,-1.3607785E-1,-5.8615472E-2,-6.7480206E-1,-3.7478372E-1,-8.9255214E-1,1.974467E-2,-6.6975183E-3,3.6709726E-2,1.0423819E-2,-2.224333E-2,-4.8631757E-2,1.419183E-3,-2.563347E-2,1.8048737E-2,-6.0526796E-2,1.2070792E-2,-4.6285E-2,-1.993724E-2,-5.272726E-2],"categories":[],"categories_nodes":[],"categories_segments":[],"categories_sizes":[],"default_left":[0,0,0,0,0,0,0,0,0,0,0,0,0,0,0,0,0,0,0,0,0,0,0,0,0,0,0,0,0],"id":16,"left_children":[1,3,5,7,9,11,13,15,17,19,21,-1,23,25,27,-1,-1,-1,-1,-1,-1,-1,-1,-1,-1,-1,-1,-1,-1],"loss_changes":[2.6763998E2,1.5363599E2,6.7916718E0,7.649445E1,3.98684E1,1.5601196E0,3.6153564E0,3.0963646E1,2.6818558E1,2.119545E0,8.273308E0,0E0,7.3940043E0,8.027719E0,3.3588295E0,0E0,0E0,0E0,0E0,0E0,0E0,0E0,0E0,0E0,0E0,0E0,0E0,0E0,0E0],"parents":[2147483647,0,0,1,1,2,2,3,3,4,4,5,5,6,6,7,7,8,8,9,9,10,10,12,12,13,13,14,14],"right_children":[2,4,6,8,10,12,14,16,18,20,22,-1,24,26,28,-1,-1,-1,-1,-1,-1,-1,-1,-1,-1,-1,-1,-1,-1],"split_conditions":[1E0,1E0,1E0,1E0,1E0,1E0,1E0,6E0,2.7E1,1E0,1E0,-5.8615472E-2,1E0,1E0,1E0,1.974467E-2,-6.6975183E-3,3.6709726E-2,1.0423819E-2,-2.224333E-2,-4.8631757E-2,1.419183E-3,-2.563347E-2,1.8048737E-2,-6.0526796E-2,1.2070792E-2,-4.6285E-2,-1.993724E-2,-5.272726E-2],"split_indices":[19,18,16,21,11,21,10,4,4,5,3,0,5,7,8,0,0,0,0,0,0,0,0,0,0,0,0,0,0],"split_type":[0,0,0,0,0,0,0,0,0,0,0,0,0,0,0,0,0,0,0,0,0,0,0,0,0,0,0,0,0],"sum_hessian":[1.4867281E3,1.2674762E3,2.1925194E2,1.01398004E3,2.5349614E2,1.510173E2,6.823464E1,4.7574606E2,5.38234E2,1.2115017E2,1.3234596E2,1.3947986E2,1.1537436E1,2.1989187E1,4.6245457E1,1.73361E2,3.0238507E2,4.0988916E2,1.2834482E2,1.0820914E1,1.10329254E2,9.276092E1,3.9585052E1,4.0443597E0,7.493076E0,1.064479E1,1.13443985E1,1.2278401E1,3.3967056E1],"tree_param":{"num_deleted":"0","num_feature":"23","num_nodes":"29","size_leaf_vector":"1"}},{"base_weights":[-7.244992E-3,1.6232622E-1,-9.9658173E-1,3.3455777E-1,-5.322327E-1,-1.139599E0,-4.8414168E-1,2.9819453E-2,6.106914E-1,-9.242687E-1,-1.8266942E-1,-5.8715075E-2,-6.847535E-1,-1.0391456E-1,-9.9386656E-1,1.744065E-2,-1.0147943E-2,3.733697E-2,1.3876803E-2,-5.3499073E-2,-1.7396512E-2,-1.3978178E-2,2.1665914E-2,-4.9972925E-2,3.1498324E-2,-3.297774E-2,1.094735E-2,-2.034977E-2,-6.364029E-2],"categories":[],"categories_nodes":[],"categories_segments":[],"categories_sizes":[],"default_left":[0,0,0,0,0,0,0,0,0,0,0,0,0,0,0,0,0,0,0,0,0,0,0,0,0,0,0,0,0],"id":17,"left_children":[1,3,5,7,9,11,13,15,17,19,21,-1,23,25,27,-1,-1,-1,-1,-1,-1,-1,-1,-1,-1,-1,-1,-1,-1],"loss_changes":[2.4693991E2,1.5050081E2,1.52326355E1,8.4764824E1,3.4101944E1,1.8420105E0,9.341606E0,3.5714115E1,2.3748306E1,9.506317E0,8.0859165E0,0E0,6.538966E0,5.3519726E0,2.8712273E0,0E0,0E0,0E0,0E0,0E0,0E0,0E0,0E0,0E0,0E0,0E0,0E0,0E0,0E0],"parents":[2147483647,0,0,1,1,2,2,3,3,4,4,5,5,6,6,7,7,8,8,9,9,10,10,12,12,13,13,14,14],"right_children":[2,4,6,8,10,12,14,16,18,20,22,-1,24,26,28,-1,-1,-1,-1,-1,-1,-1,-1,-1,-1,-1,-1,-1,-1],"split_conditions":[1E0,1E0,1.031E2,1E0,1E0,1E0,1.0995E2,8E0,2.3E1,1E0,1.0915E2,-5.8715075E-2,1E0,1.0575E2,6.9E1,1.744065E-2,-1.0147943E-2,3.733697E-2,1.3876803E-2,-5.3499073E-2,-1.7396512E-2,-1.3978178E-2,2.1665914E-2,-4.9972925E-2,3.1498324E-2,-3.297774E-2,1.094735E-2,-2.034977E-2,-6.364029E-2],"split_indices":[19,18,14,21,12,1,14,4,4,21,14,0,3,14,4,0,0,0,0,0,0,0,0,0,0,0,0,0,0],"split_type":[0,0,0,0,0,0,0,0,0,0,0,0,0,0,0,0,0,0,0,0,0,0,0,0,0,0,0,0,0],"sum_hessian":[1.4699923E3,1.255617E3,2.1437541E2,1.0065407E3,2.4907616E2,1.6664302E2,4.7732388E1,4.7901382E2,5.275269E2,1.166306E2,1.3244556E2,1.533606E2,1.3282431E1,2.8028507E1,1.9703882E1,2.0187328E2,2.7714056E2,3.736862E2,1.5384071E2,9.241042E1,2.4220173E1,1.1491563E2,1.7529936E1,1.0910559E1,2.371871E0,9.917606E0,1.81109E1,7.1402707E0,1.2563611E1],"tree_param":{"num_deleted":"0","num_feature":"23","num_nodes":"29","size_leaf_vector":"1"}},{"base_weights":[-9.871889E-3,1.4235857E-1,-9.0391E-1,-1.3500156E-1,4.5196778E-1,-1.0831115E0,-4.9613428E-1,1.8662326E-1,-4.2404172E-1,7.445117E-1,2.5689137E-1,-1.1311971E0,-5.7446104E-1,-2.7984503E-1,-9.7777426E-1,1.3316469E-3,4.4601407E-2,-3.836941E-2,-1.9355643E-3,4.006697E-2,5.6671496E-3,-4.1147236E-2,1.5090761E-2,-5.803032E-2,-3.5077304E-2,-5.7898372E-2,-3.050706E-3,-2.915822E-2,1.6886415E-2,-9.322047E-3,-5.301832E-2],"categories":[],"categories_nodes":[],"categories_segments":[],"categories_sizes":[],"default_left":[0,0,0,0,0,0,0,0,0,0,0,0,0,0,0,0,0,0,0,0,0,0,0,0,0,0,0,0,0,0,0],"id":18,"left_children":[1,3,5,7,9,11,13,15,17,19,21,23,25,27,29,-1,-1,-1,-1,-1,-1,-1,-1,-1,-1,-1,-1,-1,-1,-1,-1],"loss_changes":[2.0026152E2,1.08037704E2,1.510701E1,6.1807137E1,3.3729416E1,2.9672089E0,6.727438E0,3.5524662E1,4.627938E1,8.419266E0,1.7621117E1,8.7997437E-1,4.364806E0,9.147115E0,1.1373196E0,0E0,0E0,0E0,0E0,0E0,0E0,0E0,0E0,0E0,0E0,0E0,0E0,0E0,0E0,0E0,0E0],"parents":[2147483647,0,0,1,1,2,2,3,3,4,4,5,5,6,6,7,7,8,8,9,9,10,10,11,11,12,12,13,13,14,14],"right_children":[2,4,6,8,10,12,14,16,18,20,22,24,26,28,30,-1,-1,-1,-1,-1,-1,-1,-1,-1,-1,-1,-1,-1,-1,-1,-1],"split_conditions":[1E0,1E0,9.185E1,1.7E1,9E0,1E0,1.0995E2,8.015E1,1E0,1E0,2.91E1,1E0,6.4E1,1.0575E2,1E0,1.3316469E-3,4.4601407E-2,-3.836941E-2,-1.9355643E-3,4.006697E-2,5.6671496E-3,-4.1147236E-2,1.5090761E-2,-5.803032E-2,-3.5077304E-2,-5.7898372E-2,-3.050706E-3,-2.915822E-2,1.6886415E-2,-9.322047E-3,-5.301832E-2],"split_indices":[19,21,14,4,4,21,14,14,12,7,14,1,4,14,8,0,0,0,0,0,0,0,0,0,0,0,0,0,0,0,0],"split_type":[0,0,0,0,0,0,0,0,0,0,0,0,0,0,0,0,0,0,0,0,0,0,0,0,0,0,0,0,0,0,0],"sum_hessian":[1.4694856E3,1.2563961E3,2.1308943E2,6.630098E2,5.9338635E2,1.4688365E2,6.620578E1,3.1398373E2,3.4902606E2,2.3626216E2,3.571242E2,1.3307904E2,1.3804621E1,4.6779583E1,1.94262E1,2.5678174E2,5.7201984E1,1.8404358E2,1.649825E2,2.1649985E2,1.9762306E1,1.3572113E1,3.435521E2,1.2296116E2,1.0117875E1,5.873923E0,7.930698E0,3.1408905E1,1.5370677E1,2.1437578E0,1.7282442E1],"tree_param":{"num_deleted":"0","num_feature":"23","num_nodes":"31","size_leaf_vector":"1"}},{"base_weights":[-1.6146764E-2,1.2692381E-1,-8.8332033E-1,-2.3302998E-1,4.0888363E-1,-1.0352982E0,-5.4858273E-1,1.3944425E-1,-5.2695537E-1,6.24016E-1,-1.7336877E-2,-1.180187E0,-9.483876E-1,-3.9749452E-1,-5.910645E-2,-2.1415792E-2,1.9464795E-2,8.763067E-4,-3.522734E-2,3.4906454E-2,3.3098739E-3,-1.7521875E-2,8.950921E-3,-3.0730281E-2,-6.16722E-2,-2.9519245E-3,-4.971774E-2,-6.0187705E-2,-1.5415623E-2],"categories":[],"categories_nodes":[],"categories_segments":[],"categories_sizes":[],"default_left":[0,0,0,0,0,0,0,0,0,0,0,0,0,0,0,0,0,0,0,0,0,0,0,0,0,0,0,0,0],"id":19,"left_children":[1,3,5,7,9,11,13,15,17,19,21,23,25,27,-1,-1,-1,-1,-1,-1,-1,-1,-1,-1,-1,-1,-1,-1,-1],"loss_changes":[1.7945128E2,1.26114944E2,9.852692E0,5.9853386E1,6.388729E1,6.404877E-1,5.856148E0,3.444312E1,2.9543877E1,1.9094193E1,1.5410041E1,6.969528E-1,3.720459E0,3.5741472E0,0E0,0E0,0E0,0E0,0E0,0E0,0E0,0E0,0E0,0E0,0E0,0E0,0E0,0E0,0E0],"parents":[2147483647,0,0,1,1,2,2,3,3,4,4,5,5,6,6,7,7,8,8,9,9,10,10,11,11,12,12,13,13],"right_children":[2,4,6,8,10,12,14,16,18,20,22,24,26,28,-1,-1,-1,-1,-1,-1,-1,-1,-1,-1,-1,-1,-1,-1,-1],"split_conditions":[1E0,1E0,9.185E1,1E1,3.0672E3,2.445E1,7.8812E3,2.085E1,1E0,1E0,9.565E1,1.94E1,2.485E1,4.52405E3,-5.910645E-2,-2.1415792E-2,1.9464795E-2,8.763067E-4,-3.522734E-2,3.4906454E-2,3.3098739E-3,-1.7521875E-2,8.950921E-3,-3.0730281E-2,-6.16722E-2,-2.9519245E-3,-4.971774E-2,-6.0187705E-2,-1.5415623E-2],"split_indices":[19,16,14,4,15,14,15,14,5,7,14,14,14,15,0,0,0,0,0,0,0,0,0,0,0,0,0,0,0],"split_type":[0,0,0,0,0,0,0,0,0,0,0,0,0,0,0,0,0,0,0,0,0,0,0,0,0,0,0,0,0],"sum_hessian":[1.4445021E3,1.2406648E3,2.0383737E2,5.450368E2,6.95628E2,1.3874936E2,6.508801E1,2.4062833E2,3.0440845E2,4.6198145E2,2.3364655E2,4.7306095E1,9.144327E1,5.386879E1,1.1219221E1,7.331465E1,1.6731369E2,7.50899E1,2.2931854E2,4.0757812E2,5.4403324E1,8.63597E1,1.4728685E2,5.150362E0,4.2155735E1,4.606349E0,8.6836914E1,4.120379E0,4.974841E1],"tree_param":{"num_deleted":"0","num_feature":"23","num_nodes":"29","size_leaf_vector":"1"}},{"base_weights":[1.4077638E-2,1.6126336E-1,-9.009723E-1,-1.19717576E-1,4.7448137E-1,-1.0383575E0,-5.9176946E-1,2.2567609E-1,-3.683094E-1,7.4478424E-1,2.9585814E-1,-9.108184E-1,-1.1615489E0,-3.6052993E-1,-6.427779E-2,2.4719333E-2,-1.8142775E-2,-2.5582617E-2,1.1354521E-2,2.9515384E-2,4.7567908E-2,-1.1939301E-2,2.2058738E-2,-4.9067643E-2,-1.4416751E-2,-5.9920907E-2,7.5631537E-3,-5.7163566E-2,-1.3881038E-2],"categories":[],"categories_nodes":[],"categories_segments":[],"categories_sizes":[],"default_left":[0,0,0,0,0,0,0,0,0,0,0,0,0,0,0,0,0,0,0,0,0,0,0,0,0,0,0,0,0],"id":20,"left_children":[1,3,5,7,9,11,13,15,17,19,21,23,25,27,-1,-1,-1,-1,-1,-1,-1,-1,-1,-1,-1,-1,-1,-1,-1],"loss_changes":[1.9511578E2,1.0988178E2,7.912918E0,5.6631554E1,2.8280624E1,1.1049042E0,9.816769E0,4.3867245E1,3.2833195E1,6.912369E0,2.7848078E1,2.8901253E0,3.3947449E0,2.8917475E0,0E0,0E0,0E0,0E0,0E0,0E0,0E0,0E0,0E0,0E0,0E0,0E0,0E0,0E0,0E0],"parents":[2147483647,0,0,1,1,2,2,3,3,4,4,5,5,6,6,7,7,8,8,9,9,10,10,11,11,12,12,13,13],"right_children":[2,4,6,8,10,12,14,16,18,20,22,24,26,28,-1,-1,-1,-1,-1,-1,-1,-1,-1,-1,-1,-1,-1,-1,-1],"split_conditions":[1E0,1E0,9.185E1,1.3E1,9E0,1E0,1.105E2,1E0,1E0,7.565E1,1E0,1E0,1E0,4.74785E3,-6.427779E-2,2.4719333E-2,-1.8142775E-2,-2.5582617E-2,1.1354521E-2,2.9515384E-2,4.7567908E-2,-1.1939301E-2,2.2058738E-2,-4.9067643E-2,-1.4416751E-2,-5.9920907E-2,7.5631537E-3,-5.7163566E-2,-1.3881038E-2],"split_indices":[19,21,14,4,4,3,14,17,1,14,13,21,1,15,0,0,0,0,0,0,0,0,0,0,0,0,0,0,0],"split_type":[0,0,0,0,0,0,0,0,0,0,0,0,0,0,0,0,0,0,0,0,0,0,0,0,0,0,0,0,0],"sum_hessian":[1.4466327E3,1.2468937E3,1.9973901E2,6.575964E2,5.8929736E2,1.3665997E2,6.3079033E1,2.752525E2,3.8234384E2,2.3321443E2,3.5608292E2,7.1269104E1,6.539088E1,4.84502E1,1.4628835E1,1.8908186E2,8.6170654E1,3.0826862E2,7.407523E1,1.3564005E2,9.75744E1,7.596217E1,2.8012073E2,6.3497593E1,7.7715077E0,6.368935E1,1.7015254E0,3.4154716E0,4.503473E1],"tree_param":{"num_deleted":"0","num_feature":"23","num_nodes":"29","size_leaf_vector":"1"}},{"base_weights":[3.2588274E-3,1.412641E-1,-8.7249064E-1,2.9207587E-1,-4.542565E-1,-1.0556492E0,-6.6715163E-1,-1.8285528E-2,5.0689524E-1,-3.3296078E-1,-9.946915E-1,-1.1091636E0,-4.9550113E-1,-3.949218E-1,-9.798376E-1,-6.114203E-3,3.705176E-2,3.7700403E-2,1.3868922E-2,-2.3218058E-2,-3.912845E-3,-5.406043E-2,-2.1582168E-2,-4.858104E-2,-6.1125424E-2,1.9192198E-2,-5.581348E-2,8.596322E-3,-2.3891963E-2,-1.9688794E-2,-5.8476783E-2],"categories":[],"categories_nodes":[],"categories_segments":[],"categories_sizes":[],"default_left":[0,0,0,0,0,0,0,0,0,0,0,0,0,0,0,0,0,0,0,0,0,0,0,0,0,0,0,0,0,0,0],"id":21,"left_children":[1,3,5,7,9,11,13,15,17,19,21,23,25,27,29,-1,-1,-1,-1,-1,-1,-1,-1,-1,-1,-1,-1,-1,-1,-1,-1],"loss_changes":[1.7203598E2,1.10569916E2,6.583679E0,6.546665E1,1.5982746E1,2.4691162E0,7.6209526E0,3.1879623E1,3.2699646E1,6.8164005E0,1.7309837E0,2.3265076E-1,6.2088823E0,2.5246468E0,4.3321037E0,0E0,0E0,0E0,0E0,0E0,0E0,0E0,0E0,0E0,0E0,0E0,0E0,0E0,0E0,0E0,0E0],"parents":[2147483647,0,0,1,1,2,2,3,3,4,4,5,5,6,6,7,7,8,8,9,9,10,10,11,11,12,12,13,13,14,14],"right_children":[2,4,6,8,10,12,14,16,18,20,22,24,26,28,30,-1,-1,-1,-1,-1,-1,-1,-1,-1,-1,-1,-1,-1,-1,-1,-1],"split_conditions":[1E0,1E0,4.4691E3,1E0,1E0,1E0,7.1E1,1E0,1.4E1,5.2645E3,5.3E1,1.33665E3,1E0,5.3E1,1E0,-6.114203E-3,3.705176E-2,3.7700403E-2,1.3868922E-2,-2.3218058E-2,-3.912845E-3,-5.406043E-2,-2.1582168E-2,-4.858104E-2,-6.1125424E-2,1.9192198E-2,-5.581348E-2,8.596322E-3,-2.3891963E-2,-1.9688794E-2,-5.8476783E-2],"split_indices":[19,18,15,16,17,21,4,1,4,15,4,15,5,4,7,0,0,0,0,0,0,0,0,0,0,0,0,0,0,0,0],"split_type":[0,0,0,0,0,0,0,0,0,0,0,0,0,0,0,0,0,0,0,0,0,0,0,0,0,0,0,0,0,0,0],"sum_hessian":[1.421435E3,1.2286556E3,1.927794E2,9.807872E2,2.478685E2,9.970418E1,9.3075226E1,4.0155438E2,5.792328E2,2.0375389E2,4.4114613E1,9.011482E1,9.589358E0,5.0966183E1,4.2109043E1,3.539196E2,4.7634785E1,2.7782404E2,3.0140875E2,1.3386864E2,6.9885254E1,3.7441185E1,6.673428E0,4.5036156E1,4.5078667E1,4.126151E0,5.463207E0,6.3668737E0,4.4599308E1,1.1049138E1,3.1059906E1],"tree_param":{"num_deleted":"0","num_feature":"23","num_nodes":"31","size_leaf_vector":"1"}},{"base_weights":[-7.2686207E-3,1.2138906E-1,-8.192979E-1,2.6991943E-1,-4.5982236E-1,-9.516913E-1,-5.52969E-1,-4.5349568E-2,4.9495408E-1,-8.099539E-1,-1.6259871E-1,-1.0847551E0,-8.6673063E-1,-3.336737E-1,-9.645724E-1,1.5162997E-2,-1.3096936E-2,2.9396242E-2,-9.439608E-4,-3.202535E-2,-5.224147E-2,1.8265933E-3,-2.0492515E-2,-5.9717536E-2,-3.8208853E-2,1.9542111E-2,-4.4713628E-2,-1.025103E-3,-3.19471E-2,-2.7926126E-2,-5.570343E-2],"categories":[],"categories_nodes":[],"categories_segments":[],"categories_sizes":[],"default_left":[0,0,0,0,0,0,0,0,0,0,0,0,0,0,0,0,0,0,0,0,0,0,0,0,0,0,0,0,0,0,0],"id":22,"left_children":[1,3,5,7,9,11,13,15,17,19,21,23,25,27,29,-1,-1,-1,-1,-1,-1,-1,-1,-1,-1,-1,-1,-1,-1,-1,-1],"loss_changes":[1.4708531E2,1.0504341E2,6.2631836E0,6.874261E1,2.5650246E1,4.9817657E-1,5.664627E0,3.0609375E1,2.7015213E1,3.8478012E0,6.6738806E0,6.895561E-1,3.2113342E0,4.2696943E0,7.450657E-1,0E0,0E0,0E0,0E0,0E0,0E0,0E0,0E0,0E0,0E0,0E0,0E0,0E0,0E0,0E0,0E0],"parents":[2147483647,0,0,1,1,2,2,3,3,4,4,5,5,6,6,7,7,8,8,9,9,10,10,11,11,12,12,13,13,14,14],"right_children":[2,4,6,8,10,12,14,16,18,20,22,24,26,28,30,-1,-1,-1,-1,-1,-1,-1,-1,-1,-1,-1,-1,-1,-1,-1,-1],"split_conditions":[1E0,1E0,1E0,1E0,1E0,5.3E1,1E0,4E0,1E0,1E0,1E0,1E0,5.4E1,1E0,1E0,1.5162997E-2,-1.3096936E-2,2.9396242E-2,-9.439608E-4,-3.202535E-2,-5.224147E-2,1.8265933E-3,-2.0492515E-2,-5.9717536E-2,-3.8208853E-2,1.9542111E-2,-4.4713628E-2,-1.025103E-3,-3.19471E-2,-2.7926126E-2,-5.570343E-2],"split_indices":[19,18,16,16,12,4,20,4,7,17,7,6,4,7,8,0,0,0,0,0,0,0,0,0,0,0,0,0,0,0,0],"split_type":[0,0,0,0,0,0,0,0,0,0,0,0,0,0,0,0,0,0,0,0,0,0,0,0,0,0,0,0,0,0,0],"sum_hessian":[1.4059158E3,1.2143629E3,1.915528E2,9.6762024E2,2.4674274E2,1.26229935E2,6.532286E1,4.033431E2,5.642771E2,1.1249627E2,1.3424646E2,4.46041E1,8.162583E1,4.379846E1,2.1524405E1,1.5441133E2,2.4893178E2,4.7769995E2,8.657715E1,6.751542E1,4.4980854E1,7.483133E1,5.9415134E1,3.120908E1,1.339502E1,1.4666603E0,8.015917E1,2.214613E1,2.165233E1,7.0666246E0,1.445778E1],"tree_param":{"num_deleted":"0","num_feature":"23","num_nodes":"31","size_leaf_vector":"1"}},{"base_weights":[-2.025969E-2,-2.961037E-1,3.5065567E-1,1.2111515E-1,-5.0792277E-1,4.6634504E-1,-1.7162225E-1,-1.0761562E-1,7.2631705E-1,-7.40151E-1,-2.4249491E-1,5.1601005E-1,-6.6644645E-1,1.15990015E-2,-1.004566E0,2.0764796E-2,-2.0347651E-2,2.2103256E-2,4.601125E-2,-2.8473059E-2,-5.126672E-2,-3.8124118E-3,-2.9189637E-2,6.543131E-3,3.0685758E-2,4.60876E-2,-5.363622E-2,-1.3278717E-2,2.1523025E-2,-2.3195988E-2,-7.4866764E-2],"categories":[],"categories_nodes":[],"categories_segments":[],"categories_sizes":[],"default_left":[0,0,0,0,0,0,0,0,0,0,0,0,0,0,0,0,0,0,0,0,0,0,0,0,0,0,0,0,0,0,0],"id":23,"left_children":[1,3,5,7,9,11,13,15,17,19,21,23,25,27,29,-1,-1,-1,-1,-1,-1,-1,-1,-1,-1,-1,-1,-1,-1,-1,-1],"loss_changes":[1.4320969E2,7.099864E1,3.615187E1,3.760597E1,3.2648956E1,2.78555E1,1.6645098E1,3.11008E1,3.6987724E0,1.3219696E1,1.4141234E1,1.7569748E1,1.4523195E1,1.0601128E1,4.543911E0,0E0,0E0,0E0,0E0,0E0,0E0,0E0,0E0,0E0,0E0,0E0,0E0,0E0,0E0,0E0,0E0],"parents":[2147483647,0,0,1,1,2,2,3,3,4,4,5,5,6,6,7,7,8,8,9,9,10,10,11,11,12,12,13,13,14,14],"right_children":[2,4,6,8,10,12,14,16,18,20,22,24,26,28,30,-1,-1,-1,-1,-1,-1,-1,-1,-1,-1,-1,-1,-1,-1,-1,-1],"split_conditions":[1E0,1.3E1,1E0,7.06E1,1E0,1E0,6E1,2E0,8.015E1,1E0,6E1,1E0,2.005E1,9.09E1,6.253E3,2.0764796E-2,-2.0347651E-2,2.2103256E-2,4.601125E-2,-2.8473059E-2,-5.126672E-2,-3.8124118E-3,-2.9189637E-2,6.543131E-3,3.0685758E-2,4.60876E-2,-5.363622E-2,-1.3278717E-2,2.1523025E-2,-2.3195988E-2,-7.4866764E-2],"split_indices":[21,4,7,14,16,17,4,4,14,19,4,13,15,14,15,0,0,0,0,0,0,0,0,0,0,0,0,0,0,0,0],"split_type":[0,0,0,0,0,0,0,0,0,0,0,0,0,0,0,0,0,0,0,0,0,0,0,0,0,0,0,0,0,0,0],"sum_hessian":[1.3976823E3,8.01684E2,5.959983E2,2.7009924E2,5.315848E2,4.8800726E2,1.0799103E2,1.9661319E2,7.348605E1,2.8256998E2,2.490148E2,4.680318E2,1.9975452E1,8.932781E1,1.8663216E1,7.143544E1,1.2517774E2,3.1130817E1,4.235524E1,1.7864375E2,1.0392622E2,1.6827245E2,8.074235E1,9.517949E1,3.7285233E2,3.81058E0,1.6164871E1,5.3976128E1,3.535168E1,9.82504E0,8.838176E0],"tree_param":{"num_deleted":"0","num_feature":"23","num_nodes":"31","size_leaf_vector":"1"}},{"base_weights":[1.5950555E-2,1.3839702E-1,-8.0414903E-1,2.850207E-1,-4.462793E-1,-9.6031296E-1,-4.9325174E-1,-3.4722928E-2,4.2052358E-1,-7.7599865E-1,-1.6602762E-1,-9.9300104E-1,-6.303548E-1,-8.194944E-2,-7.028838E-1,3.9594667E-3,-2.036586E-2,1.10652475E-2,2.872553E-2,-4.4149604E-2,1.2468304E-2,-1.1206626E-2,3.7259128E-2,-5.1402003E-2,-2.505827E-2,-3.7994608E-3,-4.398893E-2,-5.5055212E-2,8.1239445E-3,-6.4805495E-3,-4.4301294E-2],"categories":[],"categories_nodes":[],"categories_segments":[],"categories_sizes":[],"default_left":[0,0,0,0,0,0,0,0,0,0,0,0,0,0,0,0,0,0,0,0,0,0,0,0,0,0,0,0,0,0,0],"id":24,"left_children":[1,3,5,7,9,11,13,15,17,19,21,23,25,27,29,-1,-1,-1,-1,-1,-1,-1,-1,-1,-1,-1,-1,-1,-1,-1,-1],"loss_changes":[1.4056848E2,1.045317E2,8.355568E0,4.222719E1,2.2470387E1,6.6828156E-1,5.3623323E0,1.2379817E1,2.086753E1,1.251783E1,7.233879E0,1.3363495E0,1.8073235E0,5.747523E0,4.2429047E0,0E0,0E0,0E0,0E0,0E0,0E0,0E0,0E0,0E0,0E0,0E0,0E0,0E0,0E0,0E0,0E0],"parents":[2147483647,0,0,1,1,2,2,3,3,4,4,5,5,6,6,7,7,8,8,9,9,10,10,11,11,12,12,13,13,14,14],"right_children":[2,4,6,8,10,12,14,16,18,20,22,24,26,28,30,-1,-1,-1,-1,-1,-1,-1,-1,-1,-1,-1,-1,-1,-1,-1,-1],"split_conditions":[1E0,1E0,9.185E1,1E0,1E0,1E0,6.60555E3,1E0,1E0,5.2645E3,7.5119E3,1E0,4.95E1,4.52405E3,1E0,3.9594667E-3,-2.036586E-2,1.10652475E-2,2.872553E-2,-4.4149604E-2,1.2468304E-2,-1.1206626E-2,3.7259128E-2,-5.1402003E-2,-2.505827E-2,-3.7994608E-3,-4.398893E-2,-5.5055212E-2,8.1239445E-3,-6.4805495E-3,-4.4301294E-2],"split_indices":[19,18,14,13,11,21,15,17,21,15,15,1,14,15,8,0,0,0,0,0,0,0,0,0,0,0,0,0,0,0,0],"split_type":[0,0,0,0,0,0,0,0,0,0,0,0,0,0,0,0,0,0,0,0,0,0,0,0,0,0,0,0,0,0,0],"sum_hessian":[1.3977212E3,1.216866E3,1.8085516E2,9.7329736E2,2.4356863E2,1.1899503E2,6.1860123E1,2.8992065E2,6.833767E2,1.1109506E2,1.3247356E2,1.0644074E2,1.2554288E1,2.1354021E1,4.0506104E1,2.2264075E2,6.727991E1,2.9899414E2,3.8438257E2,1.00723724E2,1.0371341E1,1.25241356E2,7.2322035E0,9.834437E1,8.09638E0,4.300568E0,8.25372E0,3.452762E0,1.7901258E1,1.0220749E1,3.0285353E1],"tree_param":{"num_deleted":"0","num_feature":"23","num_nodes":"31","size_leaf_vector":"1"}},{"base_weights":[-1.3918396E-2,2.9047513E-1,-3.4629127E-1,-1.07044265E-1,5.038568E-1,-5.589061E-1,-9.081902E-3,3.87863E-1,-2.817221E-1,2.7814078E-1,6.7533386E-1,-4.0613398E-1,-9.4356126E-1,2.3609367E-1,-4.0963042E-1,1.4767938E-3,4.055355E-2,-3.6906723E-2,-5.253638E-3,2.791662E-2,-2.0942562E-4,4.7166236E-2,2.9301707E-2,-1.1069564E-2,-4.438451E-2,-1.8611496E-2,-4.7982108E-2,2.1264022E-2,-1.1053785E-2,7.955858E-2,-2.260535E-2],"categories":[],"categories_nodes":[],"categories_segments":[],"categories_sizes":[],"default_left":[0,0,0,0,0,0,0,0,0,0,0,0,0,0,0,0,0,0,0,0,0,0,0,0,0,0,0,0,0,0,0],"id":25,"left_children":[1,3,5,7,9,11,13,15,17,19,21,23,25,27,29,-1,-1,-1,-1,-1,-1,-1,-1,-1,-1,-1,-1,-1,-1,-1,-1],"loss_changes":[1.3985545E2,6.1259953E1,4.7370453E1,2.1969036E1,1.7992287E1,2.3430931E1,2.5290142E1,1.0043288E1,1.5037689E1,1.6178299E1,5.818329E0,2.5763569E1,6.942291E-1,1.3912456E1,9.028711E0,0E0,0E0,0E0,0E0,0E0,0E0,0E0,0E0,0E0,0E0,0E0,0E0,0E0,0E0,0E0,0E0],"parents":[2147483647,0,0,1,1,2,2,3,3,4,4,5,5,6,6,7,7,8,8,9,9,10,10,11,11,12,12,13,13,14,14],"right_children":[2,4,6,8,10,12,14,16,18,20,22,24,26,28,30,-1,-1,-1,-1,-1,-1,-1,-1,-1,-1,-1,-1,-1,-1,-1,-1],"split_conditions":[2.3E1,1E0,9.365E1,2E0,1E0,1E0,6E1,4.48E1,2.1E1,7E0,2E0,1E0,1.94E1,1E0,9.395E1,1.4767938E-3,4.055355E-2,-3.6906723E-2,-5.253638E-3,2.791662E-2,-2.0942562E-4,4.7166236E-2,2.9301707E-2,-1.1069564E-2,-4.438451E-2,-1.8611496E-2,-4.7982108E-2,2.1264022E-2,-1.1053785E-2,7.955858E-2,-2.260535E-2],"split_indices":[4,13,14,4,21,19,4,14,14,4,4,10,14,7,14,0,0,0,0,0,0,0,0,0,0,0,0,0,0,0,0],"split_type":[0,0,0,0,0,0,0,0,0,0,0,0,0,0,0,0,0,0,0,0,0,0,0,0,0,0,0,0,0,0,0],"sum_hessian":[1.3803569E3,7.2057056E2,6.597864E2,2.5186215E2,4.6870837E2,4.0424646E2,2.5553995E2,6.5386086E1,1.8647606E2,2.0348384E2,2.6522455E2,2.908045E2,1.1344194E2,1.5876843E2,9.6771515E1,3.5986427E1,2.9399658E1,5.1147285E1,1.3532878E2,1.016379E2,1.0184594E2,6.3898865E1,2.0132568E2,2.1122903E2,7.9575485E1,3.7666197E0,1.09675316E2,1.1234666E2,4.6421776E1,1.2537832E0,9.551773E1],"tree_param":{"num_deleted":"0","num_feature":"23","num_nodes":"31","size_leaf_vector":"1"}},{"base_weights":[1.0062419E-2,1.15769885E-1,-6.958809E-1,2.3721333E-1,-3.852534E-1,-8.8892365E-1,-3.1011277E-1,-4.2975134E-1,3.05639E-1,-7.730143E-1,-8.300439E-2,-9.488839E-1,-2.6850158E-1,-1.4486614E-1,-5.4941405E-2,1.3400124E-2,-4.4557773E-2,4.0010396E-2,1.0902031E-2,-3.3238653E-2,-6.587829E-2,6.2987484E-2,-6.4931833E-3,-4.897161E-2,-2.7855158E-2,-5.214688E-2,2.1541469E-2,-5.7774026E-2,-1.8593526E-3],"categories":[],"categories_nodes":[],"categories_segments":[],"categories_sizes":[],"default_left":[0,0,0,0,0,0,0,0,0,0,0,0,0,0,0,0,0,0,0,0,0,0,0,0,0,0,0,0,0],"id":26,"left_children":[1,3,5,7,9,11,13,15,17,19,21,23,25,27,-1,-1,-1,-1,-1,-1,-1,-1,-1,-1,-1,-1,-1,-1,-1],"loss_changes":[1.0187936E2,7.233732E1,1.2965683E1,4.3775536E1,2.7130398E1,4.133812E0,7.769951E0,2.9020308E1,3.7426987E1,5.1079597E0,8.43862E0,7.3709106E-1,6.835215E0,5.556053E0,0E0,0E0,0E0,0E0,0E0,0E0,0E0,0E0,0E0,0E0,0E0,0E0,0E0,0E0,0E0],"parents":[2147483647,0,0,1,1,2,2,3,3,4,4,5,5,6,6,7,7,8,8,9,9,10,10,11,11,12,12,13,13],"right_children":[2,4,6,8,10,12,14,16,18,20,22,24,26,28,-1,-1,-1,-1,-1,-1,-1,-1,-1,-1,-1,-1,-1,-1,-1],"split_conditions":[1E0,1E0,9.185E1,2.085E1,7.235E1,1E0,7.8812E3,2E0,2E0,6.31E1,7.4E1,1E0,6.4E1,4.7E1,-5.4941405E-2,1.3400124E-2,-4.4557773E-2,4.0010396E-2,1.0902031E-2,-3.3238653E-2,-6.587829E-2,6.2987484E-2,-6.4931833E-3,-4.897161E-2,-2.7855158E-2,-5.214688E-2,2.1541469E-2,-5.7774026E-2,-1.8593526E-3],"split_indices":[19,18,14,14,14,21,15,4,4,14,14,1,4,4,0,0,0,0,0,0,0,0,0,0,0,0,0,0,0],"split_type":[0,0,0,0,0,0,0,0,0,0,0,0,0,0,0,0,0,0,0,0,0,0,0,0,0,0,0,0,0],"sum_hessian":[1.3631656E3,1.1863574E3,1.7680833E2,9.553225E2,2.3103485E2,1.1697061E2,5.983772E1,8.839833E1,8.669242E2,1.00519264E2,1.3051558E2,1.0617955E2,1.0791061E1,5.0451183E1,9.3865385E0,3.53539E1,5.304443E1,1.2922154E2,7.3770264E2,8.570444E1,1.4814822E1,3.5283015E0,1.2698728E2,9.710783E1,9.071727E0,4.8874187E0,5.9036427E0,3.9209173E0,4.6530266E1],"tree_param":{"num_deleted":"0","num_feature":"23","num_nodes":"29","size_leaf_vector":"1"}},{"base_weights":[-1.0091098E-2,1.0112293E-1,-7.9678375E-1,-1.16126664E-1,3.483079E-1,-9.685136E-1,-4.4846764E-1,-3.121485E-1,8.7594114E-2,7.6155204E-1,2.6161397E-1,-1.0117699E0,-5.216436E-1,6.4691556E-1,-5.922886E-1,-1.9408191E-3,-2.860315E-2,2.7208561E-2,-6.405093E-3,4.0338673E-2,-9.870506E-3,-2.1538164E-3,1.7547553E-2,-5.262179E-2,-2.3314685E-2,-5.085915E-2,-6.9769034E-3,5.8125522E-2,-4.009672E-2,-2.0464296E-2,-5.699097E-2],"categories":[],"categories_nodes":[],"categories_segments":[],"categories_sizes":[],"default_left":[0,0,0,0,0,0,0,0,0,0,0,0,0,0,0,0,0,0,0,0,0,0,0,0,0,0,0,0,0,0,0],"id":27,"left_children":[1,3,5,7,9,11,13,15,17,19,21,23,25,27,29,-1,-1,-1,-1,-1,-1,-1,-1,-1,-1,-1,-1,-1,-1,-1,-1],"loss_changes":[1.2074228E2,6.49754E1,9.79007E0,2.575739E1,2.0073822E1,1.6685486E0,9.568811E0,2.3321323E1,3.126241E1,4.391979E0,1.2788826E1,1.7836304E0,2.1476965E0,6.3444395E0,4.7500896E0,0E0,0E0,0E0,0E0,0E0,0E0,0E0,0E0,0E0,0E0,0E0,0E0,0E0,0E0,0E0,0E0],"parents":[2147483647,0,0,1,1,2,2,3,3,4,4,5,5,6,6,7,7,8,8,9,9,10,10,11,11,12,12,13,13,14,14],"right_children":[2,4,6,8,10,12,14,16,18,20,22,24,26,28,30,-1,-1,-1,-1,-1,-1,-1,-1,-1,-1,-1,-1,-1,-1,-1,-1],"split_conditions":[1E0,1E0,9.365E1,6.975E1,9.685E1,1E0,9.65E1,2.9445E2,1.46065E3,1E0,1E0,1E0,1E0,6.60555E3,7.73265E3,-1.9408191E-3,-2.860315E-2,2.7208561E-2,-6.405093E-3,4.0338673E-2,-9.870506E-3,-2.1538164E-3,1.7547553E-2,-5.262179E-2,-2.3314685E-2,-5.085915E-2,-6.9769034E-3,5.8125522E-2,-4.009672E-2,-2.0464296E-2,-5.699097E-2],"split_indices":[19,21,14,14,15,21,14,15,15,10,13,1,12,15,15,0,0,0,0,0,0,0,0,0,0,0,0,0,0,0,0],"split_type":[0,0,0,0,0,0,0,0,0,0,0,0,0,0,0,0,0,0,0,0,0,0,0,0,0,0,0,0,0,0,0],"sum_hessian":[1.3781287E3,1.2081982E3,1.6993044E2,6.433188E2,5.648794E2,1.1262333E2,5.7307114E1,3.2758325E2,3.1573557E2,9.6605484E1,4.6827393E2,1.0153116E2,1.1092169E1,6.2450333E0,5.106208E1,1.6023047E2,1.6735277E2,1.0081382E2,2.1492175E2,9.240661E1,4.198877E0,1.0628829E2,3.6198563E2,9.362213E1,7.909025E0,4.105649E0,6.98652E0,4.751702E0,1.4933317E0,3.9580494E1,1.1481586E1],"tree_param":{"num_deleted":"0","num_feature":"23","num_nodes":"31","size_leaf_vector":"1"}},{"base_weights":[-3.0862505E-2,2.0483127E-1,-3.3023414E-1,-7.5360365E-2,5.046796E-1,-6.8307805E-1,-8.68935E-2,4.081671E-1,-2.029105E-1,9.34522E-1,4.0520307E-1,-7.693253E-1,-3.8552937E-1,7.209388E-2,-4.1803735E-1,3.0257871E-2,-2.031448E-2,4.0859035E-3,-1.760178E-2,4.858064E-2,-2.07784E-2,7.104035E-3,3.3952218E-2,-3.1987667E-2,-4.6876367E-2,-6.2008277E-3,-4.8700593E-2,-9.1161495E-3,1.47463335E-2,2.4475738E-2,-2.412849E-2],"categories":[],"categories_nodes":[],"categories_segments":[],"categories_sizes":[],"default_left":[0,0,0,0,0,0,0,0,0,0,0,0,0,0,0,0,0,0,0,0,0,0,0,0,0,0,0,0,0,0,0],"id":28,"left_children":[1,3,5,7,9,11,13,15,17,19,21,23,25,27,29,-1,-1,-1,-1,-1,-1,-1,-1,-1,-1,-1,-1,-1,-1,-1,-1],"loss_changes":[9.487902E1,6.325283E1,5.0794167E1,2.4125233E1,1.5168236E1,5.903511E0,1.8545076E1,1.3354039E1,1.3149845E1,3.7871742E0,2.1305412E1,3.4605331E0,8.543092E0,1.3572269E1,6.9258595E0,0E0,0E0,0E0,0E0,0E0,0E0,0E0,0E0,0E0,0E0,0E0,0E0,0E0,0E0,0E0,0E0],"parents":[2147483647,0,0,1,1,2,2,3,3,4,4,5,5,6,6,7,7,8,8,9,9,10,10,11,11,12,12,13,13,14,14],"right_children":[2,4,6,8,10,12,14,16,18,20,22,24,26,28,30,-1,-1,-1,-1,-1,-1,-1,-1,-1,-1,-1,-1,-1,-1,-1,-1],"split_conditions":[2.6E1,1E0,1E0,1E0,2E0,1E0,1E0,1E0,3E0,1E0,1E0,5.5E1,1E0,1E0,3E1,3.0257871E-2,-2.031448E-2,4.0859035E-3,-1.760178E-2,4.858064E-2,-2.07784E-2,7.104035E-3,3.3952218E-2,-3.1987667E-2,-4.6876367E-2,-6.2008277E-3,-4.8700593E-2,-9.1161495E-3,1.47463335E-2,2.4475738E-2,-2.412849E-2],"split_indices":[4,16,16,5,4,21,7,3,4,10,11,4,3,21,4,0,0,0,0,0,0,0,0,0,0,0,0,0,0,0,0],"split_type":[0,0,0,0,0,0,0,0,0,0,0,0,0,0,0,0,0,0,0,0,0,0,0,0,0,0,0,0,0,0,0],"sum_hessian":[1.3426981E3,7.5142267E2,5.9127545E2,3.8883066E2,3.6259198E2,2.4059933E2,3.5067615E2,8.070134E1,3.081293E2,6.656545E1,2.9602655E2,1.8530222E2,5.5297123E1,2.3745334E2,1.132228E2,6.51908E1,1.5510536E1,1.0609069E2,2.0203862E2,6.505845E1,1.5070038E0,1.5174251E2,1.4428403E2,1.07383995E2,7.791821E1,3.9122437E1,1.6174686E1,1.1095429E2,1.2649905E2,7.0791793E0,1.0614362E2],"tree_param":{"num_deleted":"0","num_feature":"23","num_nodes":"31","size_leaf_vector":"1"}},{"base_weights":[-7.7280067E-3,-3.3466747E-1,1.6229194E-1,-4.1577518E-1,2.4727929E-1,3.0904025E-1,-2.8497854E-1,-3.040134E-1,-6.651347E-1,1.4222279E-1,1.3453218E0,3.8594684E-1,-3.8724786E-1,-4.989184E-1,-5.4160263E-2,-7.7912337E-3,-2.7189026E-2,-2.6365587E-2,-4.4767156E-2,1.8611794E-2,-7.2948323E-3,1.7028498E-2,9.572401E-2,2.4740322E-2,-3.3927334E-3,-3.683424E-2,-1.00510624E-4,-1.2360322E-2,-4.3628886E-2,1.6097713E-2,-1.6202176E-2],"categories":[],"categories_nodes":[],"categories_segments":[],"categories_sizes":[],"default_left":[0,0,0,0,0,0,0,0,0,0,0,0,0,0,0,0,0,0,0,0,0,0,0,0,0,0,0,0,0,0,0],"id":29,"left_children":[1,3,5,7,9,11,13,15,17,19,21,23,25,27,29,-1,-1,-1,-1,-1,-1,-1,-1,-1,-1,-1,-1,-1,-1,-1,-1],"loss_changes":[7.445864E1,2.173322E1,5.793131E1,1.1017342E1,6.347577E0,3.5708153E1,1.0749554E1,9.857906E0,3.454277E0,3.556931E0,2.1109734E0,2.959938E1,8.95702E0,1.0425173E1,1.0873911E1,0E0,0E0,0E0,0E0,0E0,0E0,0E0,0E0,0E0,0E0,0E0,0E0,0E0,0E0,0E0,0E0],"parents":[2147483647,0,0,1,1,2,2,3,3,4,4,5,5,6,6,7,7,8,8,9,9,10,10,11,11,12,12,13,13,14,14],"right_children":[2,4,6,8,10,12,14,16,18,20,22,24,26,28,30,-1,-1,-1,-1,-1,-1,-1,-1,-1,-1,-1,-1,-1,-1,-1,-1],"split_conditions":[1E0,1E0,1E0,1E0,1E0,1E0,9.365E1,1E0,1E0,1E0,1E0,1E0,1E0,1E0,1E0,-7.7912337E-3,-2.7189026E-2,-2.6365587E-2,-4.4767156E-2,1.8611794E-2,-7.2948323E-3,1.7028498E-2,9.572401E-2,2.4740322E-2,-3.3927334E-3,-3.683424E-2,-1.00510624E-4,-1.2360322E-2,-4.3628886E-2,1.6097713E-2,-1.6202176E-2],"split_indices":[13,1,10,17,3,17,14,8,3,2,7,7,22,7,8,0,0,0,0,0,0,0,0,0,0,0,0,0,0,0,0],"split_type":[0,0,0,0,0,0,0,0,0,0,0,0,0,0,0,0,0,0,0,0,0,0,0,0,0,0,0,0,0,0,0],"sum_hessian":[1.3375387E3,4.5726797E2,8.8027075E2,4.015836E2,5.568439E1,6.630386E2,2.172322E2,2.7883173E2,1.2275187E2,5.1852833E1,3.8315563E0,5.974901E2,6.554842E1,1.1213523E2,1.05096954E2,1.7334515E2,1.0548657E2,7.88412E1,4.3910667E1,2.8671606E1,2.3181227E1,1.9635751E0,1.8679812E0,4.8181918E2,1.1567095E2,3.3892925E1,3.1655497E1,6.799359E1,4.414164E1,4.3826527E1,6.127043E1],"tree_param":{"num_deleted":"0","num_feature":"23","num_nodes":"31","size_leaf_vector":"1"}},{"base_weights":[-1.0887946E-2,-2.3296183E-1,2.8382522E-1,1.0574078E-1,-4.1617426E-1,4.714661E-1,6.504776E-3,-3.9287776E-2,8.350111E-1,-6.2638944E-1,-1.7313051E-1,1.4645474E-1,5.7974184E-1,-1.1303563E0,7.47286E-2,1.075021E-2,-1.7467828E-2,4.7261473E-2,1.6374355E-2,-4.038423E-2,-1.5471244E-2,1.3960012E-3,-3.3251602E-2,1.731107E-2,-3.4183126E-2,2.100384E-2,3.550419E-2,-7.128764E-2,-5.562709E-3,1.1155722E-2,-1.7126784E-2],"categories":[],"categories_nodes":[],"categories_segments":[],"categories_sizes":[],"default_left":[0,0,0,0,0,0,0,0,0,0,0,0,0,0,0,0,0,0,0,0,0,0,0,0,0,0,0,0,0,0,0],"id":30,"left_children":[1,3,5,7,9,11,13,15,17,19,21,23,25,27,29,-1,-1,-1,-1,-1,-1,-1,-1,-1,-1,-1,-1,-1,-1,-1,-1],"loss_changes":[8.786369E1,4.755112E1,3.001759E1,2.854095E1,2.5285454E1,1.2023529E1,1.822092E1,1.7877865E1,2.194065E0,1.5043091E1,2.2952463E1,1.47171545E1,5.065933E0,3.8452473E0,1.3792976E1,0E0,0E0,0E0,0E0,0E0,0E0,0E0,0E0,0E0,0E0,0E0,0E0,0E0,0E0,0E0,0E0],"parents":[2147483647,0,0,1,1,2,2,3,3,4,4,5,5,6,6,7,7,8,8,9,9,10,10,11,11,12,12,13,13,14,14],"right_children":[2,4,6,8,10,12,14,16,18,20,22,24,26,28,30,-1,-1,-1,-1,-1,-1,-1,-1,-1,-1,-1,-1,-1,-1,-1,-1],"split_conditions":[1E0,1.3E1,2.3E1,7.92E1,1E0,1E0,1.6122E3,4E0,1E0,1E0,1E0,1E0,7.545E1,1E0,1E0,1.075021E-2,-1.7467828E-2,4.7261473E-2,1.6374355E-2,-4.038423E-2,-1.5471244E-2,1.3960012E-3,-3.3251602E-2,1.731107E-2,-3.4183126E-2,2.100384E-2,3.550419E-2,-7.128764E-2,-5.562709E-3,1.1155722E-2,-1.7126784E-2],"split_indices":[21,4,4,14,12,13,15,4,7,20,19,8,14,1,7,0,0,0,0,0,0,0,0,0,0,0,0,0,0,0,0],"split_type":[0,0,0,0,0,0,0,0,0,0,0,0,0,0,0,0,0,0,0,0,0,0,0,0,0,0,0,0,0,0,0],"sum_hessian":[1.340484E3,7.645703E2,5.759137E2,2.685423E2,4.96028E2,3.4307907E2,2.3283463E2,2.2478572E2,4.375657E1,2.6513138E2,2.3089664E2,8.632123E1,2.5675784E2,1.23001585E1,2.2053447E2,1.23669304E2,1.01116425E2,3.5240913E1,8.5156555E0,1.6767667E2,9.745471E1,1.645747E2,6.632192E1,7.004735E1,1.627388E1,1.1729625E2,1.3946158E2,9.226687E0,3.0734718E0,1.6302534E2,5.750912E1],"tree_param":{"num_deleted":"0","num_feature":"23","num_nodes":"31","size_leaf_vector":"1"}},{"base_weights":[-3.4168048E-3,8.852805E-2,-6.613607E-1,-1.3961793E-1,2.6873413E-1,-8.3707356E-1,-1.2065801E-1,2.7149665E-1,-2.6438108E-1,4.418625E-1,-5.0550915E-2,-8.936762E-1,-3.9117914E-1,1.4560091E-1,-8.6138743E-1,2.2565132E-2,-2.0027623E-2,7.893932E-3,-1.869497E-2,4.436766E-2,1.8326866E-2,-1.38069615E-2,7.665974E-3,-4.7997862E-2,-1.3554566E-2,2.0739935E-2,-3.595177E-2,-2.703592E-2,1.7453836E-2,1.8247532E-3,-5.385248E-2],"categories":[],"categories_nodes":[],"categories_segments":[],"categories_sizes":[],"default_left":[0,0,0,0,0,0,0,0,0,0,0,0,0,0,0,0,0,0,0,0,0,0,0,0,0,0,0,0,0,0,0],"id":31,"left_children":[1,3,5,7,9,11,13,15,17,19,21,23,25,27,29,-1,-1,-1,-1,-1,-1,-1,-1,-1,-1,-1,-1,-1,-1,-1,-1],"loss_changes":[8.07152E1,4.8168594E1,1.54418335E1,2.6604382E1,3.6196213E1,2.7623978E0,8.269394E0,1.4793519E1,1.8434927E1,1.39170685E1,1.0665354E1,4.2226105E0,4.4383154E0,4.549977E0,2.1815033E0,0E0,0E0,0E0,0E0,0E0,0E0,0E0,0E0,0E0,0E0,0E0,0E0,0E0,0E0,0E0,0E0],"parents":[2147483647,0,0,1,1,2,2,3,3,4,4,5,5,6,6,7,7,8,8,9,9,10,10,11,11,12,12,13,13,14,14],"right_children":[2,4,6,8,10,12,14,16,18,20,22,24,26,28,30,-1,-1,-1,-1,-1,-1,-1,-1,-1,-1,-1,-1,-1,-1,-1,-1],"split_conditions":[1E0,1E0,1.031E2,1E0,3.0672E3,1E0,7.73265E3,1E0,5.12E1,1.025E2,9.915E1,6.3839E3,1E0,1E0,1E0,2.2565132E-2,-2.0027623E-2,7.893932E-3,-1.869497E-2,4.436766E-2,1.8326866E-2,-1.38069615E-2,7.665974E-3,-4.7997862E-2,-1.3554566E-2,2.0739935E-2,-3.595177E-2,-2.703592E-2,1.7453836E-2,1.8247532E-3,-5.385248E-2],"split_indices":[19,16,14,5,15,21,15,3,15,15,14,15,5,13,13,0,0,0,0,0,0,0,0,0,0,0,0,0,0,0,0],"split_type":[0,0,0,0,0,0,0,0,0,0,0,0,0,0,0,0,0,0,0,0,0,0,0,0,0,0,0,0,0,0,0],"sum_hessian":[1.3322878E3,1.1696935E3,1.6259425E2,5.162861E2,6.534075E2,1.22301605E2,4.029264E1,1.1992797E2,3.963581E2,4.2342606E2,2.2998141E2,1.07634094E2,1.4667512E1,3.0229818E1,1.0062824E1,9.487322E1,2.5054754E1,8.153799E1,3.148201E2,5.9680622E1,3.6374545E2,1.0900729E2,1.2097412E2,9.6788055E1,1.0846039E1,4.1645365E0,1.0502975E1,6.533857E0,2.3695961E1,2.1097827E0,7.953042E0],"tree_param":{"num_deleted":"0","num_feature":"23","num_nodes":"31","size_leaf_vector":"1"}},{"base_weights":[-1.3674992E-2,8.562956E-2,-7.44612E-1,2.1166275E-1,-4.1794673E-1,-9.7569376E-1,-5.2019364E-1,7.137017E-2,4.452477E-1,-6.1803955E-1,-2.5277287E-1,-1.0131643E0,-5.758073E-1,6.9421136E-1,-6.0278076E-1,1.6462497E-2,-6.973978E-3,2.823015E-2,1.0099872E-2,-3.3736184E-2,1.600105E-2,-5.047955E-3,-3.1472936E-2,-4.011927E-2,-5.6147117E-2,-5.229446E-2,5.5953884E-3,5.889631E-2,-3.6632907E-2,-2.4950279E-2,-5.512417E-2],"categories":[],"categories_nodes":[],"categories_segments":[],"categories_sizes":[],"default_left":[0,0,0,0,0,0,0,0,0,0,0,0,0,0,0,0,0,0,0,0,0,0,0,0,0,0,0,0,0,0,0],"id":32,"left_children":[1,3,5,7,9,11,13,15,17,19,21,23,25,27,29,-1,-1,-1,-1,-1,-1,-1,-1,-1,-1,-1,-1,-1,-1,-1,-1],"loss_changes":[9.4698326E1,7.2994865E1,7.584831E0,3.0098465E1,7.454685E0,5.514984E-1,8.573021E0,3.1344774E1,9.897079E0,5.7162895E0,7.2472E0,6.708832E-1,2.9637232E0,4.757122E0,3.4254227E0,0E0,0E0,0E0,0E0,0E0,0E0,0E0,0E0,0E0,0E0,0E0,0E0,0E0,0E0,0E0,0E0],"parents":[2147483647,0,0,1,1,2,2,3,3,4,4,5,5,6,6,7,7,8,8,9,9,10,10,11,11,12,12,13,13,14,14],"right_children":[2,4,6,8,10,12,14,16,18,20,22,24,26,28,30,-1,-1,-1,-1,-1,-1,-1,-1,-1,-1,-1,-1,-1,-1,-1,-1],"split_conditions":[1E0,1E0,4.4691E3,1E0,1E0,1E0,5.1E1,6E0,1E0,5.8789E3,6.1E1,1E0,6.4E1,1E0,7.73265E3,1.6462497E-2,-6.973978E-3,2.823015E-2,1.0099872E-2,-3.3736184E-2,1.600105E-2,-5.047955E-3,-3.1472936E-2,-4.011927E-2,-5.6147117E-2,-5.229446E-2,5.5953884E-3,5.889631E-2,-3.6632907E-2,-2.4950279E-2,-5.512417E-2],"split_indices":[19,18,15,11,11,21,4,4,8,15,4,2,4,20,15,0,0,0,0,0,0,0,0,0,0,0,0,0,0,0,0],"split_type":[0,0,0,0,0,0,0,0,0,0,0,0,0,0,0,0,0,0,0,0,0,0,0,0,0,0,0,0,0,0,0],"sum_hessian":[1.3027692E3,1.1477233E3,1.5504597E2,9.1843933E2,2.292839E2,7.473957E1,8.0306404E1,5.746228E2,3.4381653E2,1.0244252E2,1.26841385E2,6.693402E1,7.8055525E0,4.642011E0,7.566439E1,2.5823138E2,3.1639142E2,2.297596E2,1.1405693E2,9.6869705E1,5.5728173E0,9.130943E1,3.553195E1,2.576779E1,4.116623E1,4.3270297E0,3.4785228E0,3.5970604E0,1.044951E0,6.4307915E1,1.1356474E1],"tree_param":{"num_deleted":"0","num_feature":"23","num_nodes":"31","size_leaf_vector":"1"}},{"base_weights":[2.226682E-3,8.6915545E-2,-6.3135767E-1,1.9207716E-1,-3.5657215E-1,-8.3963275E-1,-2.715271E-1,9.2270866E-2,5.2513206E-1,-6.870025E-1,-9.963934E-2,-9.079688E-1,-2.795273E-1,-1.3485377E-1,-5.1583953E-2,-7.591682E-3,1.1111797E-2,2.957198E-2,-1.2681629E-2,-4.966758E-2,-2.750936E-2,-1.374419E-2,8.506771E-3,-4.7605306E-2,-1.9171346E-2,-4.8727967E-2,8.670885E-3,-5.321606E-2,-1.9121416E-3],"categories":[],"categories_nodes":[],"categories_segments":[],"categories_sizes":[],"default_left":[0,0,0,0,0,0,0,0,0,0,0,0,0,0,0,0,0,0,0,0,0,0,0,0,0,0,0,0,0],"id":33,"left_children":[1,3,5,7,9,11,13,15,17,19,21,23,25,27,-1,-1,-1,-1,-1,-1,-1,-1,-1,-1,-1,-1,-1,-1,-1],"loss_changes":[7.019416E1,5.3884956E1,1.1331638E1,3.0978504E1,1.8738789E1,3.4672546E0,5.8893223E0,2.2856503E1,1.1252327E1,3.5078926E0,5.993816E0,1.6306686E0,3.951839E0,4.479057E0,0E0,0E0,0E0,0E0,0E0,0E0,0E0,0E0,0E0,0E0,0E0,0E0,0E0,0E0,0E0],"parents":[2147483647,0,0,1,1,2,2,3,3,4,4,5,5,6,6,7,7,8,8,9,9,10,10,11,11,12,12,13,13],"right_children":[2,4,6,8,10,12,14,16,18,20,22,24,26,28,-1,-1,-1,-1,-1,-1,-1,-1,-1,-1,-1,-1,-1,-1,-1],"split_conditions":[1E0,1E0,9.185E1,1E0,1E0,1E0,7.8812E3,1E0,4.93925E3,2.075E1,1.0245E2,1E0,1E0,4.52405E3,-5.1583953E-2,-7.591682E-3,1.1111797E-2,2.957198E-2,-1.2681629E-2,-4.966758E-2,-2.750936E-2,-1.374419E-2,8.506771E-3,-4.7605306E-2,-1.9171346E-2,-4.8727967E-2,8.670885E-3,-5.321606E-2,-1.9121416E-3],"split_indices":[19,18,14,1,12,21,15,13,15,14,14,1,12,15,0,0,0,0,0,0,0,0,0,0,0,0,0,0,0],"split_type":[0,0,0,0,0,0,0,0,0,0,0,0,0,0,0,0,0,0,0,0,0,0,0,0,0,0,0,0,0],"sum_hessian":[1.3061656E3,1.1529216E3,1.5324393E2,9.323952E2,2.2052646E2,9.62181E1,5.702583E1,7.183922E2,2.1400298E2,9.573365E1,1.24792816E2,8.5201904E1,1.1016192E1,4.9333244E1,7.6925855E0,2.4953653E2,4.6885568E2,1.9743315E2,1.6569817E1,2.762246E1,6.811119E1,7.563907E1,4.9153744E1,7.783723E1,7.364682E0,3.8921645E0,7.124028E0,3.7018814E0,4.5631363E1],"tree_param":{"num_deleted":"0","num_feature":"23","num_nodes":"29","size_leaf_vector":"1"}},{"base_weights":[1.5548737E-2,1.0291505E-1,-6.5796506E-1,5.9656584E-1,2.7266197E-2,-8.7354225E-1,-2.9587716E-1,-4.722952E-1,6.362848E-1,9.698897E-2,-6.029404E-1,-9.126485E-1,-3.1550142E-1,-1.7153123E-1,-5.0647836E-2,-2.88452E-2,-8.577535E-4,2.0375168E-2,3.882147E-2,1.1576012E-2,-1.3971864E-2,-3.2630485E-2,9.205714E-3,-9.457967E-3,-4.6875406E-2,1.895628E-2,-4.6575855E-2,7.881769E-3,-1.7235544E-2],"categories":[],"categories_nodes":[],"categories_segments":[],"categories_sizes":[],"default_left":[0,0,0,0,0,0,0,0,0,0,0,0,0,0,0,0,0,0,0,0,0,0,0,0,0,0,0,0,0],"id":34,"left_children":[1,3,5,7,9,11,13,15,17,19,21,23,25,27,-1,-1,-1,-1,-1,-1,-1,-1,-1,-1,-1,-1,-1,-1,-1],"loss_changes":[7.5941696E1,4.2640083E1,1.1309143E1,6.7422943E0,4.3625446E1,1.7279968E0,4.892279E0,2.7627003E-1,4.3879585E0,4.5318012E1,3.9866905E0,1.3658066E0,3.5957818E0,2.8831182E0,0E0,0E0,0E0,0E0,0E0,0E0,0E0,0E0,0E0,0E0,0E0,0E0,0E0,0E0,0E0],"parents":[2147483647,0,0,1,1,2,2,3,3,4,4,5,5,6,6,7,7,8,8,9,9,10,10,11,11,12,12,13,13],"right_children":[2,4,6,8,10,12,14,16,18,20,22,24,26,28,-1,-1,-1,-1,-1,-1,-1,-1,-1,-1,-1,-1,-1,-1,-1],"split_conditions":[1E0,2E0,9.185E1,1.945E1,1E0,1E0,7.8812E3,1E0,1E0,1E0,5.3E1,1.94E1,6.7E1,1E0,-5.0647836E-2,-2.88452E-2,-8.577535E-4,2.0375168E-2,3.882147E-2,1.1576012E-2,-1.3971864E-2,-3.2630485E-2,9.205714E-3,-9.457967E-3,-4.6875406E-2,1.895628E-2,-4.6575855E-2,7.881769E-3,-1.7235544E-2],"split_indices":[19,4,14,14,17,1,15,21,13,7,4,14,4,2,0,0,0,0,0,0,0,0,0,0,0,0,0,0,0],"split_type":[0,0,0,0,0,0,0,0,0,0,0,0,0,0,0,0,0,0,0,0,0,0,0,0,0,0,0,0,0],"sum_hessian":[1.2884437E3,1.1412511E3,1.4719267E2,1.5073506E2,9.90516E2,9.137688E1,5.5815792E1,5.0104375E0,1.4572462E2,8.926085E2,9.790746E1,8.479891E1,6.577965E0,4.862341E1,7.1923847E0,3.8565278E0,1.1539094E0,5.6841087E1,8.888354E1,6.57875E2,2.3473352E2,9.225619E1,5.6512733E0,3.1029475E0,8.169596E1,3.2724555E0,3.3055093E0,1.6793453E1,3.1829954E1],"tree_param":{"num_deleted":"0","num_feature":"23","num_nodes":"29","size_leaf_vector":"1"}},{"base_weights":[3.2669548E-2,2.5470373E-1,-2.0707054E-1,3.6638615E-1,-3.0467775E-1,-5.1491034E-1,-1.3734685E-2,4.4317183E-1,1.30179245E-2,1.03622824E-1,-5.0076604E-1,-1.0831049E-1,-6.5626544E-1,6.0744166E-2,-9.739222E-1,1.688289E-2,3.2451343E-2,-6.122688E-3,4.805538E-2,-4.0168267E-2,1.2901641E-2,-5.5592295E-2,-2.0402892E-2,1.3620186E-2,-3.806101E-2,-4.468383E-2,-2.8207004E-2,-1.0778713E-2,9.339373E-3,-2.5220633E-2,-5.365767E-2],"categories":[],"categories_nodes":[],"categories_segments":[],"categories_sizes":[],"default_left":[0,0,0,0,0,0,0,0,0,0,0,0,0,0,0,0,0,0,0,0,0,0,0,0,0,0,0,0,0,0,0],"id":35,"left_children":[1,3,5,7,9,11,13,15,17,19,21,23,25,27,29,-1,-1,-1,-1,-1,-1,-1,-1,-1,-1,-1,-1,-1,-1,-1,-1],"loss_changes":[7.010413E1,4.282314E1,3.7686035E1,1.546991E1,9.205315E0,1.3969246E1,2.795208E1,9.957146E0,1.3326666E1,5.518076E0,3.9315567E0,1.616959E1,3.456131E0,1.2679427E1,7.694912E-1,0E0,0E0,0E0,0E0,0E0,0E0,0E0,0E0,0E0,0E0,0E0,0E0,0E0,0E0,0E0,0E0],"parents":[2147483647,0,0,1,1,2,2,3,3,4,4,5,5,6,6,7,7,8,8,9,9,10,10,11,11,12,12,13,13,14,14],"right_children":[2,4,6,8,10,12,14,16,18,20,22,24,26,28,30,-1,-1,-1,-1,-1,-1,-1,-1,-1,-1,-1,-1,-1,-1,-1,-1],"split_conditions":[2.3E1,1E0,1E0,1E0,2.47E1,1E0,7.1E1,1E0,2.1E1,1.945E1,3E0,1E0,2.445E1,1E0,1E0,1.688289E-2,3.2451343E-2,-6.122688E-3,4.805538E-2,-4.0168267E-2,1.2901641E-2,-5.5592295E-2,-2.0402892E-2,1.3620186E-2,-3.806101E-2,-4.468383E-2,-2.8207004E-2,-1.0778713E-2,9.339373E-3,-2.5220633E-2,-5.365767E-2],"split_indices":[4,17,16,7,15,5,4,6,4,14,4,10,14,11,9,0,0,0,0,0,0,0,0,0,0,0,0,0,0,0,0],"split_type":[0,0,0,0,0,0,0,0,0,0,0,0,0,0,0,0,0,0,0,0,0,0,0,0,0,0,0,0,0,0,0],"sum_hessian":[1.315001E3,6.826788E2,6.323222E2,5.6935095E2,1.13327835E2,2.4328592E2,3.890363E2,4.675088E2,1.0184216E2,3.6921146E1,7.640669E1,6.3215717E1,1.8007019E2,3.619014E2,2.7134865E1,3.1082907E2,1.5667972E2,8.987136E1,1.1970797E1,4.759796E0,3.216135E1,8.616788E0,6.77899E1,4.029963E1,2.2916086E1,4.7908142E1,1.3216205E2,1.1314623E2,2.4875519E2,5.7957306E0,2.1339134E1],"tree_param":{"num_deleted":"0","num_feature":"23","num_nodes":"31","size_leaf_vector":"1"}},{"base_weights":[1.732287E-2,9.1337435E-2,-5.6538725E-1,3.0225223E-1,-3.427021E-2,-7.8438956E-1,-2.2436814E-1,1.6310109E-1,6.48363E-1,-1.5109335E-1,3.2544935E-1,-7.047547E-1,-5.3927798E-2,6.312181E-1,-3.7049884E-1,2.0196773E-2,-2.3987242E-4,3.6403134E-2,-1.2109728E-3,-1.4521274E-2,2.1859754E-3,4.316871E-2,9.759074E-3,-3.8505327E-2,5.3044476E-2,5.3664505E-2,-3.88977E-2,-4.7659926E-2,-9.747229E-3],"categories":[],"categories_nodes":[],"categories_segments":[],"categories_sizes":[],"default_left":[0,0,0,0,0,0,0,0,0,0,0,0,0,0,0,0,0,0,0,0,0,0,0,0,0,0,0,0,0],"id":36,"left_children":[1,3,5,7,9,11,13,15,17,19,21,23,-1,25,27,-1,-1,-1,-1,-1,-1,-1,-1,-1,-1,-1,-1,-1,-1],"loss_changes":[5.552633E1,3.0268692E1,1.0660854E1,2.0430885E1,3.016899E1,1.3003807E0,7.503532E0,1.2353889E1,6.5541267E0,1.4716796E1,1.216618E1,9.137028E0,0E0,6.3493776E0,4.9588795E0,0E0,0E0,0E0,0E0,0E0,0E0,0E0,0E0,0E0,0E0,0E0,0E0,0E0,0E0],"parents":[2147483647,0,0,1,1,2,2,3,3,4,4,5,5,6,6,7,7,8,8,9,9,10,10,11,11,13,13,14,14],"right_children":[2,4,6,8,10,12,14,16,18,20,22,24,-1,26,28,-1,-1,-1,-1,-1,-1,-1,-1,-1,-1,-1,-1,-1,-1],"split_conditions":[1E0,1E1,9.185E1,7.59E1,9.82E1,7.985E1,9.65E1,2E0,1E0,1E0,2.6E1,7.935E1,-5.3927798E-2,6.60555E3,1.031E2,2.0196773E-2,-2.3987242E-4,3.6403134E-2,-1.2109728E-3,-1.4521274E-2,2.1859754E-3,4.316871E-2,9.759074E-3,-3.8505327E-2,5.3044476E-2,5.3664505E-2,-3.88977E-2,-4.7659926E-2,-9.747229E-3],"split_indices":[19,4,14,14,14,14,14,4,7,21,4,14,0,15,14,0,0,0,0,0,0,0,0,0,0,0,0,0,0],"split_type":[0,0,0,0,0,0,0,0,0,0,0,0,0,0,0,0,0,0,0,0,0,0,0,0,0,0,0,0,0],"sum_hessian":[1.2852491E3,1.1411465E3,1.4410268E2,4.2541016E2,7.1573627E2,8.695809E1,5.7144577E1,3.0447116E2,1.20939026E2,5.4071326E2,1.7502301E2,7.110482E1,1.5853276E1,7.8520093E0,4.929257E1,1.24492615E2,1.7997853E2,1.0805253E2,1.2886497E1,3.1495993E2,2.2575334E2,3.3024555E1,1.4199844E2,6.9110664E1,1.9941539E0,6.1584067E0,1.6936026E0,1.038686E1,3.890571E1],"tree_param":{"num_deleted":"0","num_feature":"23","num_nodes":"29","size_leaf_vector":"1"}},{"base_weights":[-1.7493164E-2,6.0205206E-2,-6.382464E-1,-4.8499104E-1,1.238081E-1,-8.70422E-1,-2.7089137E-1,6.942506E-2,-7.743743E-1,4.6589464E-1,5.2189953E-3,-2.3563527E-1,-8.934331E-1,1.578788E-1,-6.375641E-1,-4.2474717E-2,1.1022449E-2,-2.309031E-2,-5.0152134E-2,1.4949739E-2,3.0294219E-2,-9.365185E-3,8.6611835E-3,-3.9602425E-2,4.039071E-2,-5.14902E-2,-3.653292E-2,-8.022428E-3,3.6721583E-2,-3.2331168E-3,-4.2466838E-2],"categories":[],"categories_nodes":[],"categories_segments":[],"categories_sizes":[],"default_left":[0,0,0,0,0,0,0,0,0,0,0,0,0,0,0,0,0,0,0,0,0,0,0,0,0,0,0,0,0,0,0],"id":37,"left_children":[1,3,5,7,9,11,13,15,17,19,21,23,25,27,29,-1,-1,-1,-1,-1,-1,-1,-1,-1,-1,-1,-1,-1,-1,-1,-1],"loss_changes":[6.0781155E1,3.8904602E1,1.172084E1,1.8862797E1,4.0726665E1,1.03759E0,8.864128E0,5.8943787E0,5.048275E0,5.857033E0,2.417909E1,3.1638086E0,1.0699615E0,4.9807463E0,3.614503E0,0E0,0E0,0E0,0E0,0E0,0E0,0E0,0E0,0E0,0E0,0E0,0E0,0E0,0E0,0E0,0E0],"parents":[2147483647,0,0,1,1,2,2,3,3,4,4,5,5,6,6,7,7,8,8,9,9,10,10,11,11,12,12,13,13,14,14],"right_children":[2,4,6,8,10,12,14,16,18,20,22,24,26,28,30,-1,-1,-1,-1,-1,-1,-1,-1,-1,-1,-1,-1,-1,-1,-1,-1],"split_conditions":[1E0,2.1E1,9.185E1,3.59E1,6E0,1.94E1,1E0,1.945E1,1.99E1,6.445E1,8.185E1,1.935E1,2.4527E3,7.3182E3,1E0,-4.2474717E-2,1.1022449E-2,-2.309031E-2,-5.0152134E-2,1.4949739E-2,3.0294219E-2,-9.365185E-3,8.6611835E-3,-3.9602425E-2,4.039071E-2,-5.14902E-2,-3.653292E-2,-8.022428E-3,3.6721583E-2,-3.2331168E-3,-4.2466838E-2],"split_indices":[19,14,14,15,4,14,7,14,14,14,14,14,15,15,2,0,0,0,0,0,0,0,0,0,0,0,0,0,0,0,0],"split_type":[0,0,0,0,0,0,0,0,0,0,0,0,0,0,0,0,0,0,0,0,0,0,0,0,0,0,0,0,0,0,0],"sum_hessian":[1.258399E3,1.1192125E3,1.3918645E2,1.16235E2,1.0029776E3,8.4445694E1,5.4740757E1,4.012378E1,7.611122E1,2.574369E2,7.455407E2,3.347275E0,8.109842E1,2.5496159E1,2.9244598E1,5.0107136E0,3.5113068E1,3.343216E1,4.2679058E1,1.1886197E2,1.3857492E2,3.473662E2,3.9817447E2,2.3402717E0,1.0070033E0,4.1229885E1,3.9868534E1,1.6891632E1,8.6045265E0,8.244999E0,2.09996E1],"tree_param":{"num_deleted":"0","num_feature":"23","num_nodes":"31","size_leaf_vector":"1"}},{"base_weights":[-5.307328E-3,-2.1714932E-1,1.7710806E-1,1.0790448E-1,-4.4177732E-1,2.9045922E-1,-2.5227776E-1,-6.9726586E-1,1.8359622E-1,-4.6182282E-2,-5.634131E-1,-2.9361077E-2,3.723506E-1,-8.34646E-1,-1.1779751E-1,-7.036912E-2,-2.2358608E-2,6.5069175E-3,3.2739002E-2,1.3114753E-2,-3.3468734E-2,-4.1966286E-2,-2.3154808E-2,3.6777721E-3,-4.3976307E-2,8.498359E-3,2.53535E-2,-5.4898053E-2,-1.6866878E-2,1.5686402E-3,-2.6321245E-2],"categories":[],"categories_nodes":[],"categories_segments":[],"categories_sizes":[],"default_left":[0,0,0,0,0,0,0,0,0,0,0,0,0,0,0,0,0,0,0,0,0,0,0,0,0,0,0,0,0,0,0],"id":38,"left_children":[1,3,5,7,9,11,13,15,17,19,21,23,25,27,29,-1,-1,-1,-1,-1,-1,-1,-1,-1,-1,-1,-1,-1,-1,-1,-1],"loss_changes":[4.8863342E1,4.27648E1,3.3142624E1,1.4747406E1,1.6630539E1,1.4101559E1,1.1056938E1,3.06839E0,5.4577255E0,1.60343E1,6.9368362E0,9.741966E0,1.1594181E1,3.1071987E0,7.140969E0,0E0,0E0,0E0,0E0,0E0,0E0,0E0,0E0,0E0,0E0,0E0,0E0,0E0,0E0,0E0,0E0],"parents":[2147483647,0,0,1,1,2,2,3,3,4,4,5,5,6,6,7,7,8,8,9,9,10,10,11,11,12,12,13,13,14,14],"right_children":[2,4,6,8,10,12,14,16,18,20,22,24,26,28,30,-1,-1,-1,-1,-1,-1,-1,-1,-1,-1,-1,-1,-1,-1,-1,-1],"split_conditions":[1E0,1E1,5.5E1,1.97E1,1E0,1E0,9.32E1,1.92E1,1E0,1E0,2.405E1,1E0,1E0,1E0,1E0,-7.036912E-2,-2.2358608E-2,6.5069175E-3,3.2739002E-2,1.3114753E-2,-3.3468734E-2,-4.1966286E-2,-2.3154808E-2,3.6777721E-3,-4.3976307E-2,8.498359E-3,2.53535E-2,-5.4898053E-2,-1.6866878E-2,1.5686402E-3,-2.6321245E-2],"split_indices":[16,4,4,14,5,13,14,14,1,10,14,18,6,18,3,0,0,0,0,0,0,0,0,0,0,0,0,0,0,0,0],"split_type":[0,0,0,0,0,0,0,0,0,0,0,0,0,0,0,0,0,0,0,0,0,0,0,0,0,0,0,0,0,0,0],"sum_hessian":[1.262478E3,5.840365E2,6.784416E2,2.3887944E2,3.4515707E2,5.370044E2,1.414372E2,1.9821068E1,2.1905836E2,8.14941E1,2.6366296E2,1.0960242E2,4.2740195E2,2.555679E1,1.1588041E2,3.957296E0,1.5863772E1,1.9788377E2,2.1174593E1,5.489864E1,2.659546E1,6.833817E1,1.953248E2,9.858207E1,1.1020347E1,1.7171027E2,2.556917E2,1.5919774E1,9.637015E0,8.5567154E1,3.0313253E1],"tree_param":{"num_deleted":"0","num_feature":"23","num_nodes":"31","size_leaf_vector":"1"}},{"base_weights":[1.0700133E-2,1.2532468E-1,-3.9801586E-1,2.0500849E-1,-3.3424553E-1,-6.828179E-1,-1.3400315E-1,3.009605E-1,-1.2475993E-1,2.2413963E-1,-5.5249894E-1,4.7343937E-1,-7.1450305E-1,-7.898775E-2,-6.799659E-2,2.547036E-2,8.245623E-3,-3.8851665E-3,-5.2755225E-2,-1.6816477E-4,2.9364591E-2,-2.2690088E-2,-5.4623514E-2,-3.6008906E-2,8.349282E-2,-2.7820984E-2,-4.6272844E-2,1.0759364E-3,-3.9399516E-2],"categories":[],"categories_nodes":[],"categories_segments":[],"categories_sizes":[],"default_left":[0,0,0,0,0,0,0,0,0,0,0,0,0,0,0,0,0,0,0,0,0,0,0,0,0,0,0,0,0],"id":39,"left_children":[1,3,5,7,9,11,13,15,17,19,21,23,25,27,-1,-1,-1,-1,-1,-1,-1,-1,-1,-1,-1,-1,-1,-1,-1],"loss_changes":[5.7577755E1,3.5215065E1,2.014925E1,2.5938225E1,1.745369E1,5.073597E0,9.398117E0,1.7905556E1,8.025814E0,3.3622987E0,4.9682827E0,6.984709E0,3.693718E0,9.704391E0,0E0,0E0,0E0,0E0,0E0,0E0,0E0,0E0,0E0,0E0,0E0,0E0,0E0,0E0,0E0],"parents":[2147483647,0,0,1,1,2,2,3,3,4,4,5,5,6,6,7,7,8,8,9,9,10,10,11,11,12,12,13,13],"right_children":[2,4,6,8,10,12,14,16,18,20,22,24,26,28,-1,-1,-1,-1,-1,-1,-1,-1,-1,-1,-1,-1,-1,-1,-1],"split_conditions":[5E1,1E0,9.365E1,1E0,2E0,1.945E1,1E0,8E0,1E0,1E0,3.4E1,1E0,1E0,7.2E1,-6.799659E-2,2.547036E-2,8.245623E-3,-3.8851665E-3,-5.2755225E-2,-1.6816477E-4,2.9364591E-2,-2.2690088E-2,-5.4623514E-2,-3.6008906E-2,8.349282E-2,-2.7820984E-2,-4.6272844E-2,1.0759364E-3,-3.9399516E-2],"split_indices":[4,17,14,7,4,14,22,4,19,13,4,22,10,4,0,0,0,0,0,0,0,0,0,0,0,0,0,0,0],"split_type":[0,0,0,0,0,0,0,0,0,0,0,0,0,0,0,0,0,0,0,0,0,0,0,0,0,0,0,0,0],"sum_hessian":[1.2269453E3,9.5875543E2,2.681899E2,8.175553E2,1.4120012E2,1.2825229E2,1.3993764E2,6.333563E2,1.8419899E2,3.9672924E1,1.015272E2,3.0489173E0,1.2520336E2,1.3494617E2,4.9914827E0,2.4904169E2,3.8431464E2,1.7636215E2,7.836833E0,2.500122E1,1.4671703E1,8.7393616E1,1.4133585E1,1.7255046E0,1.3234127E0,7.3649765E1,5.15536E1,1.1904086E2,1.5905294E1],"tree_param":{"num_deleted":"0","num_feature":"23","num_nodes":"29","size_leaf_vector":"1"}},{"base_weights":[1.1016607E-2,8.2516864E-2,-6.055801E-1,1.5965272E-1,-2.3442163E-1,-7.534307E-1,-1.7407075E-1,-5.9807688E-2,2.5702628E-1,-5.6429094E-1,-3.8352724E-2,-6.908031E-1,-5.8636107E-2,8.392906E-3,-4.7972795E-2,-1.0479916E-3,-5.294302E-2,1.6501086E-2,-4.950825E-3,-1.5263438E-2,-3.4572605E-2,-2.5069479E-2,4.2967903E-3,-3.7526216E-2,1.7298661E-2,2.2294708E-2,-7.507036E-3],"categories":[],"categories_nodes":[],"categories_segments":[],"categories_sizes":[],"default_left":[0,0,0,0,0,0,0,0,0,0,0,0,0,0,0,0,0,0,0,0,0,0,0,0,0,0,0],"id":40,"left_children":[1,3,5,7,9,11,13,15,17,19,21,23,-1,25,-1,-1,-1,-1,-1,-1,-1,-1,-1,-1,-1,-1,-1],"loss_changes":[5.503921E1,2.7383417E1,8.1452675E0,1.9252645E1,1.4165471E1,1.7191772E0,4.938607E0,1.0746987E1,1.6243313E1,2.479967E0,8.022499E0,5.599209E0,0E0,2.072182E0,0E0,0E0,0E0,0E0,0E0,0E0,0E0,0E0,0E0,0E0,0E0,0E0,0E0],"parents":[2147483647,0,0,1,1,2,2,3,3,4,4,5,5,6,6,7,7,8,8,9,9,10,10,11,11,13,13],"right_children":[2,4,6,8,10,12,14,16,18,20,22,24,-1,26,-1,-1,-1,-1,-1,-1,-1,-1,-1,-1,-1,-1,-1],"split_conditions":[1E0,1E0,1.0395E2,1E0,6.995E1,9.565E1,7.8812E3,5.2E1,1E0,2.4E1,1E0,9.365E1,-5.8636107E-2,1E0,-4.7972795E-2,-1.0479916E-3,-5.294302E-2,1.6501086E-2,-4.950825E-3,-1.5263438E-2,-3.4572605E-2,-2.5069479E-2,4.2967903E-3,-3.7526216E-2,1.7298661E-2,2.2294708E-2,-7.507036E-3],"split_indices":[19,18,14,13,14,14,15,4,10,4,11,14,0,10,0,0,0,0,0,0,0,0,0,0,0,0,0],"split_type":[0,0,0,0,0,0,0,0,0,0,0,0,0,0,0,0,0,0,0,0,0,0,0,0,0,0,0],"sum_hessian":[1.2462944E3,1.117568E3,1.2872649E2,8.992151E2,2.1835289E2,9.5320274E1,3.34062E1,2.764771E2,6.22738E2,8.070148E1,1.3765141E2,8.523645E1,1.0083827E1,2.7911102E1,5.4950995E0,2.6711154E2,9.36557E0,5.168476E2,1.0589035E2,2.7692865E1,5.3008614E1,2.8487429E1,1.0916399E2,8.085507E1,4.38138E0,6.941687E0,2.0969416E1],"tree_param":{"num_deleted":"0","num_feature":"23","num_nodes":"27","size_leaf_vector":"1"}},{"base_weights":[-2.9740077E-2,6.222166E-2,-4.743282E-1,-4.2737564E-1,1.3174744E-1,-6.976468E-1,-7.239021E-2,1.0039453E-1,-6.608956E-1,2.339013E-1,-1.9332255E-1,4.6559777E-2,-7.3048526E-1,1.3796812E-1,-6.2964195E-1,-6.080095E-3,2.396117E-2,-2.3649089E-2,-4.947573E-2,1.5641145E-2,-4.9125333E-3,-1.716779E-2,1.0157726E-2,-4.5870714E-2,-2.7498955E-2,1.7408524E-2,-3.248138E-2,6.380085E-3,-5.7015654E-2],"categories":[],"categories_nodes":[],"categories_segments":[],"categories_sizes":[],"default_left":[0,0,0,0,0,0,0,0,0,0,0,0,0,0,0,0,0,0,0,0,0,0,0,0,0,0,0,0,0],"id":41,"left_children":[1,3,5,7,9,11,13,15,17,19,21,-1,23,25,27,-1,-1,-1,-1,-1,-1,-1,-1,-1,-1,-1,-1,-1,-1],"loss_changes":[5.09018E1,3.518169E1,1.9102352E1,1.5909452E1,3.0076008E1,8.010925E0,9.151279E0,3.4474337E0,5.043354E0,1.8080624E1,1.2965252E1,0E0,4.047333E0,9.655492E0,8.409546E0,0E0,0E0,0E0,0E0,0E0,0E0,0E0,0E0,0E0,0E0,0E0,0E0,0E0,0E0],"parents":[2147483647,0,0,1,1,2,2,3,3,4,4,5,5,6,6,7,7,8,8,9,9,10,10,12,12,13,13,14,14],"right_children":[2,4,6,8,10,12,14,16,18,20,22,-1,24,26,28,-1,-1,-1,-1,-1,-1,-1,-1,-1,-1,-1,-1,-1,-1],"split_conditions":[5.5E1,2.1E1,1.0245E2,2E0,1E0,1.945E1,1E0,1E0,1.9E1,1E0,9.6E1,4.6559777E-2,5.1213E3,7.1E1,1E0,-6.080095E-3,2.396117E-2,-2.3649089E-2,-4.947573E-2,1.5641145E-2,-4.9125333E-3,-1.716779E-2,1.0157726E-2,-4.5870714E-2,-2.7498955E-2,1.7408524E-2,-3.248138E-2,6.380085E-3,-5.7015654E-2],"split_indices":[4,14,14,4,10,14,3,13,4,7,14,0,15,4,10,0,0,0,0,0,0,0,0,0,0,0,0,0,0],"split_type":[0,0,0,0,0,0,0,0,0,0,0,0,0,0,0,0,0,0,0,0,0,0,0,0,0,0,0,0,0],"sum_hessian":[1.2432745E3,1.0308967E3,2.123779E2,1.2754982E2,9.0334686E2,1.3605139E2,7.63265E1,3.92998E1,8.825002E1,6.8756024E2,2.1578665E2,2.148045E0,1.3390335E2,5.5955956E1,2.037054E1,2.5207205E1,1.4092597E1,5.7696693E1,3.0553328E1,5.556033E2,1.3195697E2,1.5664403E2,5.9142624E1,6.3775814E1,7.012753E1,4.4608322E1,1.1347634E1,8.506656E0,1.1863884E1],"tree_param":{"num_deleted":"0","num_feature":"23","num_nodes":"29","size_leaf_vector":"1"}},{"base_weights":[-1.0302293E-3,6.694345E-2,-5.977226E-1,-1.3073225E-1,2.1838894E-1,-9.3416494E-1,-4.406749E-1,-2.218253E-1,5.582058E-1,5.018541E-1,5.7530414E-2,-4.8963994E-1,-5.3265024E-2,-2.7858835E-1,-7.264307E-1,-5.059095E-3,-2.5065575E-2,3.506949E-2,-5.6211423E-2,2.232726E-2,5.7091273E-2,-9.649524E-3,9.269132E-3,-4.9624387E-2,1.0352532E-1,-2.468314E-2,1.8988028E-2,4.3344118E-2,-4.3601226E-2],"categories":[],"categories_nodes":[],"categories_segments":[],"categories_sizes":[],"default_left":[0,0,0,0,0,0,0,0,0,0,0,0,0,0,0,0,0,0,0,0,0,0,0,0,0,0,0,0,0],"id":42,"left_children":[1,3,5,7,9,11,13,15,17,19,21,23,-1,25,27,-1,-1,-1,-1,-1,-1,-1,-1,-1,-1,-1,-1,-1,-1],"loss_changes":[4.972322E1,3.2976624E1,6.212738E0,3.0124746E1,2.840278E1,1.7521439E0,3.844244E0,1.4209843E1,1.43055725E1,7.475765E0,1.2813169E1,1.5876169E1,0E0,8.310566E0,7.946905E0,0E0,0E0,0E0,0E0,0E0,0E0,0E0,0E0,0E0,0E0,0E0,0E0,0E0,0E0],"parents":[2147483647,0,0,1,1,2,2,3,3,4,4,5,5,6,6,7,7,8,8,9,9,10,10,11,11,13,13,14,14],"right_children":[2,4,6,8,10,12,14,16,18,20,22,24,-1,26,28,-1,-1,-1,-1,-1,-1,-1,-1,-1,-1,-1,-1,-1,-1],"split_conditions":[1E0,1E0,2.4527E3,1E0,1.16075E3,7.408E2,7.1E1,2.3E1,3.3161E3,1.05955E3,1E0,6.89E2,-5.3265024E-2,6.85905E3,3.9541E3,-5.059095E-3,-2.5065575E-2,3.506949E-2,-5.6211423E-2,2.232726E-2,5.7091273E-2,-9.649524E-3,9.269132E-3,-4.9624387E-2,1.0352532E-1,-2.468314E-2,1.8988028E-2,4.3344118E-2,-4.3601226E-2],"split_indices":[19,16,15,1,15,15,4,4,15,15,11,15,0,15,15,0,0,0,0,0,0,0,0,0,0,0,0,0,0],"split_type":[0,0,0,0,0,0,0,0,0,0,0,0,0,0,0,0,0,0,0,0,0,0,0,0,0,0,0,0,0],"sum_hessian":[1.22395E3,1.0995768E3,1.2437319E2,4.7704544E2,6.225314E2,3.8005642E1,8.6367546E1,4.2193427E2,5.5111156E1,2.2460762E2,3.9792377E2,9.736062E0,2.826958E1,5.6368877E1,2.9998667E1,2.9566788E2,1.262664E2,5.132614E1,3.7850153E0,2.0830298E2,1.6304634E1,1.3428624E2,2.6363754E2,8.649511E0,1.0865508E0,4.2676983E1,1.3691895E1,2.09691E0,2.7901756E1],"tree_param":{"num_deleted":"0","num_feature":"23","num_nodes":"29","size_leaf_vector":"1"}},{"base_weights":[6.0227592E-3,-1.3764942E-1,1.9337574E-1,-6.9021195E-2,-5.207031E-1,2.8660753E-1,-2.1662262E-1,3.63781E-2,-3.824998E-1,-8.4523135E-1,-2.8972653E-1,1.5203188E-1,4.1427138E-1,-3.6472028E-1,3.434761E-2,-2.8359985E-3,2.4819424E-2,-3.370543E-2,-7.2440053E-3,-2.0569183E-2,-5.4084092E-2,4.947844E-2,-1.757977E-2,2.5273973E-2,1.0042355E-3,2.5179347E-2,-4.300494E-3,-8.282841E-3,-5.4572858E-2,2.1676954E-2,-3.0185198E-2],"categories":[],"categories_nodes":[],"categories_segments":[],"categories_sizes":[],"default_left":[0,0,0,0,0,0,0,0,0,0,0,0,0,0,0,0,0,0,0,0,0,0,0,0,0,0,0,0,0,0,0],"id":43,"left_children":[1,3,5,7,9,11,13,15,17,19,21,23,25,27,29,-1,-1,-1,-1,-1,-1,-1,-1,-1,-1,-1,-1,-1,-1,-1,-1],"loss_changes":[3.282686E1,1.8109747E1,2.0294277E1,1.939321E1,7.605091E0,7.3531876E0,3.6784186E0,1.8865673E1,1.0134823E1,3.968401E0,5.3107004E0,9.863844E0,9.915588E0,8.804968E0,9.817341E0,0E0,0E0,0E0,0E0,0E0,0E0,0E0,0E0,0E0,0E0,0E0,0E0,0E0,0E0,0E0,0E0],"parents":[2147483647,0,0,1,1,2,2,3,3,4,4,5,5,6,6,7,7,8,8,9,9,10,10,11,11,12,12,13,13,14,14],"right_children":[2,4,6,8,10,12,14,16,18,20,22,24,26,28,30,-1,-1,-1,-1,-1,-1,-1,-1,-1,-1,-1,-1,-1,-1,-1,-1],"split_conditions":[1E0,1E0,1E0,1E0,1E0,1E0,1E0,1E0,1E0,1E0,7.408E2,1.22E2,5.63905E3,2.5702E3,1E0,-2.8359985E-3,2.4819424E-2,-3.370543E-2,-7.2440053E-3,-2.0569183E-2,-5.4084092E-2,4.947844E-2,-1.757977E-2,2.5273973E-2,1.0042355E-3,2.5179347E-2,-4.300494E-3,-8.282841E-3,-5.4572858E-2,2.1676954E-2,-3.0185198E-2],"split_indices":[21,19,3,18,6,12,9,1,12,2,15,15,15,15,10,0,0,0,0,0,0,0,0,0,0,0,0,0,0,0,0],"split_type":[0,0,0,0,0,0,0,0,0,0,0,0,0,0,0,0,0,0,0,0,0,0,0,0,0,0,0,0,0,0,0],"sum_hessian":[1.217551E3,6.892573E2,5.282937E2,5.855329E2,1.037244E2,4.3066364E2,9.763004E1,4.3886093E2,1.4667198E2,4.2022408E1,6.1701996E1,2.107229E2,2.1994075E2,6.1113625E1,3.6516422E1,3.657219E2,7.313903E1,6.5029884E1,8.164209E1,1.5790067E1,2.6232342E1,2.1546447E0,5.954735E1,5.6512268E1,1.5421063E2,1.8661723E2,3.3323517E1,4.8937027E1,1.2176597E1,2.2659948E1,1.3856475E1],"tree_param":{"num_deleted":"0","num_feature":"23","num_nodes":"31","size_leaf_vector":"1"}},{"base_weights":[2.2968588E-2,9.034351E-2,-4.2480963E-1,2.176279E-1,-2.2573844E-1,-1.0325771E-2,-5.6739354E-1,6.4174545E-1,1.3950044E-1,6.940389E-2,-3.7306085E-1,-4.2743164E-1,2.4577622E-1,-2.5259745E-1,-7.4009484E-1,2.2093577E-2,4.365609E-2,-1.3612014E-3,1.5153581E-2,-3.2388266E-2,6.3711195E-3,-3.0048473E-2,2.2083062E-3,-1.0307456E-2,-4.172088E-2,3.9088592E-2,-5.8716764E-3,-2.6505599E-2,2.533645E-2,-4.4932302E-2,-1.4378763E-2],"categories":[],"categories_nodes":[],"categories_segments":[],"categories_sizes":[],"default_left":[0,0,0,0,0,0,0,0,0,0,0,0,0,0,0,0,0,0,0,0,0,0,0,0,0,0,0,0,0,0,0],"id":44,"left_children":[1,3,5,7,9,11,13,15,17,19,21,23,25,27,29,-1,-1,-1,-1,-1,-1,-1,-1,-1,-1,-1,-1,-1,-1,-1,-1],"loss_changes":[3.6679558E1,4.255498E1,9.391968E0,2.488483E1,1.3235467E1,4.561669E0,6.2444572E0,5.023449E0,1.7400352E1,4.3265066E0,1.9311136E1,1.2902074E0,5.247657E0,9.419708E0,5.185211E0,0E0,0E0,0E0,0E0,0E0,0E0,0E0,0E0,0E0,0E0,0E0,0E0,0E0,0E0,0E0,0E0],"parents":[2147483647,0,0,1,1,2,2,3,3,4,4,5,5,6,6,7,7,8,8,9,9,10,10,11,11,12,12,13,13,14,14],"right_children":[2,4,6,8,10,12,14,16,18,20,22,24,26,28,30,-1,-1,-1,-1,-1,-1,-1,-1,-1,-1,-1,-1,-1,-1,-1,-1],"split_conditions":[1E0,1E0,3.59E1,1.025E2,2.4E1,1.99E1,1.99E1,6.31E1,8.185E1,3.965E1,1.0395E2,1.965E1,2.02E1,1.975E1,2.445E1,2.2093577E-2,4.365609E-2,-1.3612014E-3,1.5153581E-2,-3.2388266E-2,6.3711195E-3,-3.0048473E-2,2.2083062E-3,-1.0307456E-2,-4.172088E-2,3.9088592E-2,-5.8716764E-3,-2.6505599E-2,2.533645E-2,-4.4932302E-2,-1.4378763E-2],"split_indices":[17,10,15,15,4,14,14,14,14,14,14,14,15,14,14,0,0,0,0,0,0,0,0,0,0,0,0,0,0,0,0],"split_type":[0,0,0,0,0,0,0,0,0,0,0,0,0,0,0,0,0,0,0,0,0,0,0,0,0,0,0,0,0,0,0],"sum_hessian":[1.2135298E3,1.0555107E3,1.5801912E2,7.5271014E2,3.0280057E2,4.0720165E1,1.1729895E2,1.1596674E2,6.367434E2,1.0099614E2,2.0180443E2,1.5236283E1,2.5483883E1,4.2426857E1,7.487209E1,6.378015E1,5.218659E1,3.1574506E2,3.2099835E2,6.7982225E0,9.4197914E1,1.3022768E2,7.157675E1,1.0845822E1,4.3904614E0,9.828047E0,1.5655835E1,3.1292213E1,1.1134643E1,5.4715366E1,2.0156729E1],"tree_param":{"num_deleted":"0","num_feature":"23","num_nodes":"31","size_leaf_vector":"1"}},{"base_weights":[1.3872997E-2,-1.3708097E-1,2.0884007E-1,2.3574265E-2,-2.9094854E-1,3.145669E-1,-1.2793697E-2,-1.1306898E-1,6.215015E-1,-6.656685E-1,-1.7655882E-1,3.483236E-1,-1.3145201E0,-3.913636E-1,1.1376278E-1,-8.005592E-3,4.184515E-2,1.38671985E-2,4.120029E-2,-4.799944E-2,-1.4403867E-2,4.3587647E-2,-9.9345585E-3,1.9481033E-2,-1.9068824E-2,-7.8545325E-2,-1.8022675E-2,-2.0410104E-3,-5.736483E-2,1.7497322E-2,-2.4040714E-3],"categories":[],"categories_nodes":[],"categories_segments":[],"categories_sizes":[],"default_left":[0,0,0,0,0,0,0,0,0,0,0,0,0,0,0,0,0,0,0,0,0,0,0,0,0,0,0,0,0,0,0],"id":45,"left_children":[1,3,5,7,9,11,13,15,17,19,21,23,25,27,29,-1,-1,-1,-1,-1,-1,-1,-1,-1,-1,-1,-1,-1,-1,-1,-1],"loss_changes":[3.5565212E1,1.6844505E1,1.23602295E1,2.7371037E1,1.4799057E1,2.0092617E1,8.249867E0,1.2326883E1,4.114153E0,8.728119E0,6.3905563E0,1.0713306E1,1.2579746E0,1.1383245E1,4.9528017E0,0E0,0E0,0E0,0E0,0E0,0E0,0E0,0E0,0E0,0E0,0E0,0E0,0E0,0E0,0E0,0E0],"parents":[2147483647,0,0,1,1,2,2,3,3,4,4,5,5,6,6,7,7,8,8,9,9,10,10,11,11,12,12,13,13,14,14],"right_children":[2,4,6,8,10,12,14,16,18,20,22,24,26,28,30,-1,-1,-1,-1,-1,-1,-1,-1,-1,-1,-1,-1,-1,-1,-1,-1],"split_conditions":[1E0,1.2501E3,1E0,1E0,6.975E1,5.8789E3,1E0,8.545E1,6.12E1,1E0,7.04E1,1E0,1.0575E2,6.065E1,2.6563E3,-8.005592E-3,4.184515E-2,1.38671985E-2,4.120029E-2,-4.799944E-2,-1.4403867E-2,4.3587647E-2,-9.9345585E-3,1.9481033E-2,-1.9068824E-2,-7.8545325E-2,-1.8022675E-2,-2.0410104E-3,-5.736483E-2,1.7497322E-2,-2.4040714E-3],"split_indices":[21,15,8,6,14,15,16,14,14,8,14,17,14,14,15,0,0,0,0,0,0,0,0,0,0,0,0,0,0,0,0],"split_type":[0,0,0,0,0,0,0,0,0,0,0,0,0,0,0,0,0,0,0,0,0,0,0,0,0,0,0,0,0,0,0],"sum_hessian":[1.206452E3,6.801446E2,5.263075E2,3.3314755E2,3.4699704E2,3.5604337E2,1.702641E2,2.718362E2,6.1311344E1,8.002626E1,2.669708E2,3.4958572E2,6.457662E0,4.213444E1,1.2812965E2,2.598022E2,1.2034014E1,2.3589825E1,3.772152E1,4.4105232E1,3.592103E1,4.7261376E0,2.6224466E2,3.3130188E2,1.8283834E1,4.58027E0,1.8773925E0,2.9505888E1,1.2628555E1,5.162689E1,7.650277E1],"tree_param":{"num_deleted":"0","num_feature":"23","num_nodes":"31","size_leaf_vector":"1"}},{"base_weights":[-1.6749395E-2,1.9704281E-1,-1.9443704E-1,3.0616654E-2,4.0901306E-1,-4.5467657E-1,-1.3223056E-2,1.2555751E-1,-5.1814455E-1,4.8385695E-1,-2.1720076E-1,-2.69242E-1,-8.4773827E-1,-3.7348253E-1,1.1481091E-1,2.8835095E-3,4.2661265E-2,-2.282638E-3,-4.821044E-2,3.0029831E-2,1.3980295E-2,-5.3900916E-2,6.4081126E-3,-1.9815031E-2,1.1639577E-2,-5.3996354E-2,-3.117395E-2,-2.9606586E-2,7.866937E-3,1.4326281E-2,-9.485858E-3],"categories":[],"categories_nodes":[],"categories_segments":[],"categories_sizes":[],"default_left":[0,0,0,0,0,0,0,0,0,0,0,0,0,0,0,0,0,0,0,0,0,0,0,0,0,0,0,0,0,0,0],"id":46,"left_children":[1,3,5,7,9,11,13,15,17,19,21,23,25,27,29,-1,-1,-1,-1,-1,-1,-1,-1,-1,-1,-1,-1,-1,-1,-1,-1],"loss_changes":[4.596179E1,1.9361635E1,3.1151587E1,1.6149796E1,1.1422173E1,1.9537327E1,1.8055416E1,1.29921875E1,9.5941305E0,4.9823456E0,8.007162E0,1.1938897E1,3.8287125E0,1.2004788E1,1.5160553E1,0E0,0E0,0E0,0E0,0E0,0E0,0E0,0E0,0E0,0E0,0E0,0E0,0E0,0E0,0E0,0E0],"parents":[2147483647,0,0,1,1,2,2,3,3,4,4,5,5,6,6,7,7,8,8,9,9,10,10,11,11,12,12,13,13,14,14],"right_children":[2,4,6,8,10,12,14,16,18,20,22,24,26,28,30,-1,-1,-1,-1,-1,-1,-1,-1,-1,-1,-1,-1,-1,-1,-1,-1],"split_conditions":[1.7E1,1E0,1E0,1E0,1E0,1E0,1E0,1E0,7E0,8E0,1E0,1E0,1E0,1E0,5.5E1,2.8835095E-3,4.2661265E-2,-2.282638E-3,-4.821044E-2,3.0029831E-2,1.3980295E-2,-5.3900916E-2,6.4081126E-3,-1.9815031E-2,1.1639577E-2,-5.3996354E-2,-3.117395E-2,-2.9606586E-2,7.866937E-3,1.4326281E-2,-9.485858E-3],"split_indices":[4,16,6,8,7,10,13,1,4,4,13,1,8,20,4,0,0,0,0,0,0,0,0,0,0,0,0,0,0,0,0],"split_type":[0,0,0,0,0,0,0,0,0,0,0,0,0,0,0,0,0,0,0,0,0,0,0,0,0,0,0,0,0,0,0],"sum_hessian":[1.2078868E3,5.4819476E2,6.59692E2,3.0772906E2,2.4046571E2,2.701801E2,3.8951193E2,2.6299896E2,4.4730095E1,2.1499701E2,2.5468702E1,1.8471986E2,8.546024E1,1.016301E2,2.8788184E2,2.4154355E2,2.1455404E1,2.22569E1,2.2473194E1,1.3557097E2,7.942605E1,6.6849794E0,1.8783724E1,1.475798E2,3.7140057E1,4.0113174E1,4.5347073E1,7.18989E1,2.9731194E1,1.8412059E2,1.03761246E2],"tree_param":{"num_deleted":"0","num_feature":"23","num_nodes":"31","size_leaf_vector":"1"}},{"base_weights":[-3.9998526E-3,4.682353E-2,-4.5809522E-1,9.703033E-2,-3.2322937E-1,-6.7874056E-1,-2.848912E-1,4.3655464E-1,5.6806877E-2,1.8156181E-1,-5.117238E-1,-4.5610505E-1,-8.281687E-1,-7.2865546E-2,-8.225235E-1,9.2081E-3,3.416708E-2,-3.0009265E-3,8.768199E-3,-2.608133E-2,1.6514849E-2,-1.8143585E-2,-4.1675508E-2,-3.6756147E-2,2.6458118E-2,-4.7282353E-2,-1.17197875E-2,2.6637021E-2,-1.1967576E-2,-5.4078676E-2,3.8370353E-3],"categories":[],"categories_nodes":[],"categories_segments":[],"categories_sizes":[],"default_left":[0,0,0,0,0,0,0,0,0,0,0,0,0,0,0,0,0,0,0,0,0,0,0,0,0,0,0,0,0,0,0],"id":47,"left_children":[1,3,5,7,9,11,13,15,17,19,21,23,25,27,29,-1,-1,-1,-1,-1,-1,-1,-1,-1,-1,-1,-1,-1,-1,-1,-1],"loss_changes":[2.7864918E1,2.0207018E1,4.4511356E0,1.3044333E1,1.245889E1,1.3762398E0,7.8976398E0,6.1784725E0,1.1876958E1,3.9451325E0,4.2426147E0,6.821908E0,1.893486E0,5.2858763E0,4.6597767E0,0E0,0E0,0E0,0E0,0E0,0E0,0E0,0E0,0E0,0E0,0E0,0E0,0E0,0E0,0E0,0E0],"parents":[2147483647,0,0,1,1,2,2,3,3,4,4,5,5,6,6,7,7,8,8,9,9,10,10,11,11,12,12,13,13,14,14],"right_children":[2,4,6,8,10,12,14,16,18,20,22,24,26,28,30,-1,-1,-1,-1,-1,-1,-1,-1,-1,-1,-1,-1,-1,-1,-1,-1],"split_conditions":[1E0,1E0,4.4691E3,2E0,2.05E1,1.33665E3,7.2E1,1E0,1E0,1.945E1,1E0,1E0,1E0,5.3302E3,1E0,9.2081E-3,3.416708E-2,-3.0009265E-3,8.768199E-3,-2.608133E-2,1.6514849E-2,-1.8143585E-2,-4.1675508E-2,-3.6756147E-2,2.6458118E-2,-4.7282353E-2,-1.17197875E-2,2.6637021E-2,-1.1967576E-2,-5.4078676E-2,3.8370353E-3],"split_indices":[19,17,15,4,15,15,4,16,11,15,13,6,21,15,1,0,0,0,0,0,0,0,0,0,0,0,0,0,0,0,0],"split_type":[0,0,0,0,0,0,0,0,0,0,0,0,0,0,0,0,0,0,0,0,0,0,0,0,0,0,0,0,0,0,0],"sum_hessian":[1.2054594E3,1.0849286E3,1.2053079E2,9.5596606E2,1.2896255E2,5.172252E1,6.880827E1,1.0021369E2,8.557524E2,3.507308E1,9.388949E1,2.2400291E1,2.9322227E1,5.0161606E1,1.8646664E1,5.0407467E1,4.980622E1,4.3127274E2,4.2447964E2,5.685613E0,2.9387463E1,6.564914E1,2.8240347E1,1.7654577E1,4.745714E0,2.398431E1,5.3379164E0,1.0341967E1,3.9819637E1,1.4319059E1,4.3276052E0],"tree_param":{"num_deleted":"0","num_feature":"23","num_nodes":"31","size_leaf_vector":"1"}},{"base_weights":[-1.0468722E-3,5.337421E-2,-5.071093E-1,1.13225326E-1,-1.9141012E-1,-7.01564E-1,-2.7123618E-1,1.6315946E-1,-1.1876435E-1,-4.7416934E-1,-4.8097E-3,-8.2832396E-1,-4.2611438E-1,-6.37852E-2,-7.181724E-1,4.213087E-3,1.6136171E-2,8.479427E-3,-1.9800646E-2,2.6281276E-3,-2.7179271E-2,-1.7747352E-3,5.6278866E-2,-1.6824516E-2,-4.5499083E-2,-2.5786499E-2,3.284839E-2,3.652274E-3,-4.690769E-2,-5.5678517E-2,-1.836725E-2],"categories":[],"categories_nodes":[],"categories_segments":[],"categories_sizes":[],"default_left":[0,0,0,0,0,0,0,0,0,0,0,0,0,0,0,0,0,0,0,0,0,0,0,0,0,0,0,0,0,0,0],"id":48,"left_children":[1,3,5,7,9,11,13,15,17,19,21,23,25,27,29,-1,-1,-1,-1,-1,-1,-1,-1,-1,-1,-1,-1,-1,-1,-1,-1],"loss_changes":[3.345538E1,1.609104E1,5.2196865E0,1.0236341E1,1.1387427E1,1.8823948E0,5.047072E0,9.114861E0,1.2602061E1,3.1661034E0,4.58573E0,1.4121227E0,2.4970894E0,4.688228E0,1.992938E0,0E0,0E0,0E0,0E0,0E0,0E0,0E0,0E0,0E0,0E0,0E0,0E0,0E0,0E0,0E0,0E0],"parents":[2147483647,0,0,1,1,2,2,3,3,4,4,5,5,6,6,7,7,8,8,9,9,10,10,11,11,12,12,13,13,14,14],"right_children":[2,4,6,8,10,